BPNN
1000000
0.002057
0.300000
0.300000
801
11
5
8010
55
-0.761325
0.154251
-0.043348
0.053861
-0.132206
0.007412
0.067007
-0.120532
-0.134443
-0.486237
-0.271845
-0.132915
-0.177012
-0.292837
0.091952
0.420955
-0.443090
-0.117455
-0.550236
-0.125658
-0.355874
-0.472272
-0.035112
-0.034364
0.059133
0.606991
-0.083859
-0.009241
0.242763
1.010898
0.077038
0.171552
-0.095343
0.895042
0.134156
0.251337
0.072821
0.315067
-0.044421
0.200326
0.091165
0.446860
0.762394
0.761066
0.310719
0.346516
-0.073142
-0.476255
0.628620
0.013137
0.728331
0.565933
-0.058030
0.314075
-0.023172
-0.330526
1.064032
-0.481394
-0.418299
-0.006333
-0.830167
-0.283849
-0.708282
-0.413553
0.153449
0.243708
0.175294
0.032943
0.089472
1.132461
0.109392
0.040177
0.330953
0.220595
0.197132
0.154578
-0.185550
0.454845
0.883587
1.087945
0.813712
-0.105067
0.174677
-0.174444
0.334981
0.523344
1.049562
-0.201981
0.173666
1.175485
0.910591
0.239204
0.050072
0.085551
0.033957
-0.344148
0.428343
-0.830676
1.383243
0.511496
0.161579
0.256645
-0.038827
-0.446907
0.057179
-0.163355
1.263085
0.511316
0.198963
-0.104641
-0.074364
0.058657
-0.132074
-0.012179
0.755514
0.151127
0.088982
-0.102109
0.065595
0.538274
-0.307969
0.094995
0.477937
-0.113743
0.270569
0.643078
0.070208
0.575746
-1.294067
-0.072010
-0.001185
-0.109271
0.020382
0.442435
0.277446
0.200194
0.090359
-0.038588
0.257028
0.010565
-0.224991
0.416776
0.374309
0.465912
-0.582578
0.146847
0.699110
-0.330814
-0.149972
0.095884
0.332289
0.297945
-0.653570
-0.248942
0.417681
-0.316175
-0.061988
0.138144
0.148972
-0.253634
-0.947439
-0.099298
-0.217555
-0.080208
0.074947
0.565233
0.564945
0.883713
0.470886
-0.289417
-0.288032
-0.018440
0.154146
0.426756
0.973030
1.118719
-0.165705
-0.678320
-0.082629
0.128692
-0.087143
-0.191280
0.078699
0.727757
-0.240317
-0.560963
-0.446022
0.033968
-0.045926
-0.688298
0.211513
1.022431
0.250471
-0.517235
-0.389742
0.025613
0.043884
-0.567549
0.141599
0.713548
0.069868
0.039889
0.399243
0.028435
-0.030216
-0.033253
0.052155
-0.343462
-0.609271
0.073707
1.029505
0.147055
0.225118
1.109561
-0.368036
-1.184552
-1.280100
-0.065889
0.234725
0.142008
1.321229
-0.981864
-1.349169
-0.978172
-1.172276
-0.321327
-0.689174
0.236377
-0.246546
-1.551959
0.277660
-0.512812
-1.394781
-0.232639
-0.563820
0.132747
-0.145925
-1.830689
0.218457
-0.225122
-0.467465
0.110919
0.041488
0.591858
0.015928
-0.124065
0.479017
0.485083
-0.011259
-0.360442
-0.107608
0.325080
-0.356442
0.831745
-0.148007
0.872949
-0.034520
-0.067403
0.027835
-0.018076
-0.816732
0.203118
0.072573
-0.242236
0.327576
0.929695
-0.242831
-0.194444
-1.703433
-0.887817
-0.061584
0.027137
0.882425
0.919025
0.276814
-0.085278
0.394317
-1.736153
-0.232026
0.143170
0.555407
-0.518580
0.542461
0.232842
0.517329
0.219517
-0.134858
-0.254344
0.076479
-0.510431
0.321183
-0.003540
0.010258
0.762098
-0.490425
-0.585366
0.628034
0.579972
0.028171
-0.338831
-0.072781
-0.403536
-0.013312
-0.075367
0.038430
0.605417
0.378346
0.298366
-0.518087
-0.089948
0.155466
0.020432
0.021074
0.549928
-0.290197
-0.317138
0.193427
-0.893285
0.471845
0.114426
0.095629
-0.436398
-0.451234
-0.211993
-0.035790
-0.309434
-0.762768
-0.644633
-0.112272
-0.288580
-0.276852
-0.145799
-0.041606
-0.185239
-0.660909
0.293903
0.275622
-0.141330
0.600354
0.091592
-0.067626
0.094919
0.018313
-0.677155
0.244503
-0.071141
-0.211288
-0.285641
-0.124824
0.070343
0.251774
-0.075568
-0.133401
-0.065805
-1.033052
-0.183926
-0.054687
0.009311
0.411644
-0.005732
-0.017928
-0.179898
-0.009111
-0.315115
0.843469
-0.698985
-0.098613
-0.336534
0.407978
-0.099862
-0.180759
0.558681
0.271099
0.416889
0.617405
-0.592619
0.863265
0.056237
-0.131352
0.505835
0.181933
-0.263039
-0.051333
-0.353421
0.318570
-0.312923
0.720766
-0.048855
0.092855
-0.372116
-0.084736
0.089856
-0.713081
-0.046338
0.349401
0.065359
-0.258442
0.237794
0.199234
0.656351
0.478291
-0.068646
-0.300203
-0.348533
-0.140823
-0.443766
0.368401
-0.319000
0.635558
0.124781
0.247968
0.531163
0.075044
-0.078714
0.175047
0.659989
-0.427245
0.037489
0.216678
0.282191
0.183257
0.185312
-0.235729
0.336567
0.390986
-0.114341
0.156267
0.309995
-0.840330
-0.928108
-0.788517
0.656299
0.465521
-0.289737
0.404025
-0.449307
-0.670469
-1.008318
-0.219861
0.141657
-1.465788
-0.246621
0.803055
0.443503
0.832448
-0.162076
-0.204601
-0.060637
-0.117748
0.532725
0.211218
0.171328
-0.148432
-0.159629
-0.057704
0.012096
-0.062744
0.451080
-0.026229
0.092770
-0.521438
-0.023446
0.378767
0.568978
0.292355
0.394878
0.081798
-0.020000
-1.182032
-0.944643
0.313453
0.412186
0.551982
0.307775
-0.315459
-0.333350
-0.553010
-0.882202
-0.801458
0.013559
0.518735
-0.059510
1.105344
0.238652
0.321871
0.672691
-0.040959
-0.590305
-0.699349
0.643812
0.609353
0.298636
0.282513
0.927703
0.153912
0.109142
-0.748416
-0.795439
0.815502
0.702582
0.286118
-0.180346
-0.100488
0.348700
-0.738461
-0.908685
-0.745111
0.926093
-0.060896
-0.282638
0.230614
0.919283
-0.435619
0.695475
0.110762
0.068673
0.558584
0.223414
-0.271989
0.514462
0.215201
0.405556
0.426813
-0.026128
0.236010
0.276341
0.159622
0.749531
-0.476673
-0.054576
-0.405938
0.193475
0.313128
0.240691
0.141643
0.400190
-0.563861
-0.740006
-0.534799
0.369482
1.055085
-0.014185
0.094493
0.473444
-0.472022
-0.609737
-0.418593
-0.314034
0.614859
-0.142139
-0.087875
-0.307645
-0.558299
-0.757668
-0.202433
0.071089
0.727687
-0.074725
-0.070922
-0.331203
-0.461390
0.130048
0.196573
0.439161
0.636571
0.208741
0.269165
0.368572
-0.044650
0.301813
1.362336
0.641642
-0.489172
0.093035
0.108382
0.120047
-0.445819
-0.244354
0.579447
0.599425
-0.054583
-0.385456
0.452320
0.244703
-0.364343
-0.649776
0.742317
0.581033
0.014004
-0.086553
0.573236
0.601089
-0.319024
0.003040
0.227180
-0.553826
-0.057434
0.002181
0.030763
0.070488
-0.406526
0.489217
-0.157067
0.342921
0.474510
1.446178
0.821367
1.404532
-0.459355
-0.546965
-0.103457
0.126727
0.344786
-0.241575
-0.158190
0.835804
-1.353043
-0.169281
-0.878586
-1.061122
-0.259473
-0.009871
0.245345
-0.382868
-0.520001
-1.415251
0.278568
-0.941260
-0.313251
-0.020202
0.238761
0.600173
-0.140102
0.133764
0.241469
-0.558226
-0.487709
-0.015884
0.130926
0.237503
0.084146
0.015512
0.141113
-0.229247
0.726688
-0.095511
1.096312
-0.299527
0.509640
-0.928291
-0.141630
0.050218
0.114412
1.456108
0.199297
-0.227038
0.300767
-0.615210
-0.374375
-0.534034
-0.456709
-0.534628
-0.027095
-0.382439
0.464981
-1.010570
-0.587677
-0.135201
0.864840
0.166784
-0.139026
-0.280844
-0.027582
-0.420106
-0.020455
-0.531139
0.317533
-0.026154
-0.499121
-0.106967
-1.720144
-0.537621
0.311741
0.055721
0.778297
-0.069072
-0.107608
-0.527746
-0.042040
-0.144954
-0.056981
1.044304
-0.360624
-0.176312
-0.120432
-0.443547
0.065714
0.896527
0.848410
0.723135
-0.257680
-0.031254
0.003133
0.190117
0.446410
0.395207
0.651254
0.361330
-0.186820
-0.022237
0.007361
-0.139689
0.878022
0.918112
1.084167
0.387479
0.050498
0.045754
0.026252
-0.487509
0.845000
-0.345978
-0.068694
-0.124408
0.968907
-0.355872
0.061992
-0.085164
0.501428
-0.168686
-0.129197
-0.132502
0.071507
0.209413
-0.030303
-0.116892
-0.895262
-0.521405
0.197647
-0.101367
0.084437
0.232258
0.049810
-0.024697
-0.364885
0.108307
1.351351
0.447376
0.142541
0.056158
-0.034155
0.294828
-0.364907
0.153869
0.230381
0.181988
-0.073476
0.122991
-0.099067
0.241652
-0.301548
-0.004690
-0.004690
-0.004690
-0.004690
-0.004690
-0.004690
-0.004690
-0.004690
-0.004690
-0.004690
-0.004690
-0.004690
-0.004690
-0.004690
-0.004690
-0.004690
-0.004690
-0.004690
-0.004690
-0.004690
-0.004690
-0.004690
-0.004690
-0.004690
-0.004690
-0.004690
-0.004690
-0.004690
-0.004690
-0.004690
-0.004690
-0.004690
-0.069830
0.223892
0.014688
0.228278
0.190092
0.235764
0.033616
0.225105
0.166800
-0.229038
-0.031682
-0.257129
0.224728
-0.025173
-0.508204
0.115121
0.310272
-0.008635
0.439397
0.102690
0.170535
0.066706
0.927979
0.494820
-0.417059
0.211251
0.486185
0.231440
0.003344
0.045960
-0.471729
0.103155
0.244312
0.601196
0.257420
0.303842
-1.118998
-0.801595
-0.273913
-0.039109
-0.039985
-0.760296
0.148787
0.081952
0.342076
0.172605
-0.279784
0.155764
-0.129830
-0.152620
0.821689
-0.375004
-0.073633
-0.069663
0.330699
-0.433032
-0.411694
0.245856
0.353945
-0.303525
-0.127591
0.205525
0.580591
0.823802
0.437986
0.163851
0.876188
0.007192
-0.116577
0.075970
0.612838
0.405996
-0.034116
-0.482560
0.056548
0.020041
0.070025
-0.797862
-0.967151
-0.704649
0.069209
-0.656562
-0.427211
-0.159446
-0.231624
-0.799679
-0.469941
0.083973
0.003761
0.035268
-0.052011
0.515002
0.234894
-0.138708
-0.551766
0.152007
-0.396026
0.443484
0.272309
0.203370
0.150426
0.422228
0.126119
0.397194
-0.314231
-0.110491
0.495030
0.019907
0.116068
-0.237552
0.012755
0.372784
-0.293030
-0.688967
-0.305641
-0.139955
-0.111909
-0.131121
-0.057899
0.929928
-0.396733
-0.537140
-0.454902
0.115735
-0.293027
-0.287289
-0.019629
0.251254
-0.446601
-0.083369
-0.422711
-0.063172
-0.167372
-0.377593
0.710736
0.408927
0.181061
-0.023961
-0.516552
-0.122661
-0.110895
-0.300186
0.084974
0.243581
0.479040
-0.066827
-0.487091
-0.510024
-0.292666
-0.363495
-0.068588
0.337596
1.050676
0.104752
-0.343345
0.217242
-0.235731
-0.243048
-0.360955
-1.006690
1.211247
-0.115646
-0.414090
0.238469
-0.154382
-0.374804
-0.487623
-0.367907
-0.380456
-0.482451
-0.629922
0.285883
0.344021
-0.320878
-0.233951
-0.142114
-0.112172
-0.565352
-0.466565
-0.483164
-0.195717
0.718288
-0.214515
-0.382383
-1.183084
0.096645
-0.439819
-0.514228
-0.298432
1.089689
0.316591
-0.142316
0.131884
0.173933
0.107493
-0.423920
-0.158490
-0.235383
-0.512686
-0.270587
0.248909
0.209853
0.365124
-0.325372
-0.268834
1.300991
0.102102
-0.449912
0.235898
0.023190
0.157022
0.265919
1.184777
-0.023293
0.011215
0.408985
0.671535
0.019859
0.741377
-0.040199
-0.404674
-0.361515
0.479875
0.727342
0.134498
0.005584
-0.145868
0.011994
0.421213
0.379338
-0.594125
-0.290971
-0.329847
-0.046129
-0.391191
0.225602
-1.387788
-0.326871
0.004176
0.227758
-0.515191
0.051448
0.251748
0.351281
-1.251959
-0.465910
0.139376
-0.065326
-0.271035
0.051551
-0.016592
-0.027308
0.008099
-0.082052
0.803886
0.554321
-0.281763
-0.115931
-0.063236
-0.162953
-0.697533
0.225043
-0.028534
0.808493
0.354448
-0.050068
-0.001037
-0.549574
-1.460235
-0.545855
0.285577
0.311688
0.586577
0.137862
1.209784
-0.156683
-0.118991
-1.482189
-0.307147
0.287392
0.479902
1.569976
-0.309127
0.003362
0.508474
-0.215787
-1.038183
0.312353
0.403570
0.273680
-0.082192
-0.475289
-0.975954
0.478350
0.261187
0.117952
-0.749043
-0.403572
-0.051377
-0.008080
-0.747652
0.507240
0.458644
-0.634256
-0.818093
-0.506876
0.681738
0.448546
-0.913873
-0.883451
-0.469771
-0.382163
-0.606161
0.776525
0.574216
-0.207386
-0.643116
-1.181351
-0.307480
-0.335525
-0.032278
0.674030
0.205294
-0.011947
0.196616
-0.065496
-0.735435
-0.258537
0.114649
0.086647
0.028135
-0.170994
0.049200
-0.277558
0.040729
0.053806
0.137026
0.219572
0.146358
-0.081393
-0.045784
-0.044504
-0.073024
0.163663
0.237638
0.292480
0.280008
-0.014307
-0.046370
-0.102425
-0.444814
-0.046458
0.181605
0.332411
0.045769
-0.303735
-0.122085
0.031374
0.059117
-0.059737
0.020333
0.373651
0.004635
-0.273942
-0.113500
0.111070
0.698661
-0.147508
0.024331
-0.209702
-0.527751
-0.430391
0.085713
-0.149561
0.134324
0.066380
0.076961
-0.083287
-0.819397
-0.384087
-0.214894
0.124964
0.454332
0.435586
0.168339
0.046852
-0.059592
-0.519967
0.034702
0.143629
0.223493
0.063489
0.047417
-0.624721
0.144983
0.491828
0.168012
0.018609
0.205713
-0.198596
-0.213120
0.870907
1.288463
0.817811
-0.035055
0.250835
0.225292
0.268864
0.110455
0.204126
-0.140809
-0.006536
-0.053955
-0.180634
0.051727
1.010771
-0.143719
-0.071234
0.202846
0.246391
0.005790
-0.217108
-0.048911
1.146585
0.106534
0.073083
0.175063
0.244310
0.088294
-0.236074
-0.105085
0.879136
-0.133020
0.077571
0.169467
0.024697
-0.286635
-0.459866
-0.112070
0.710873
-0.058777
0.010907
0.174676
-0.557086
-0.262504
-0.278905
-0.326331
-0.062355
-0.421552
-0.198863
1.003438
0.522965
-0.798486
0.105960
0.132296
0.328876
0.021294
0.808406
0.167327
-0.326543
-0.422934
-0.059107
-0.007571
0.103314
-0.002468
-0.543823
-0.483195
-0.227201
-0.107268
-0.151712
-0.044841
-0.297639
-0.225429
0.213563
-0.821073
-0.212651
-0.405202
-0.709073
-0.564830
-0.355178
-0.286524
0.007969
-0.103642
-0.362491
-0.401152
-0.773215
-0.658886
-0.355310
0.451223
-0.267018
-0.210686
0.238267
0.097314
0.167945
0.685515
0.284296
-0.033669
-1.039801
0.167021
0.220608
0.114288
0.460323
1.201698
0.544357
-0.629670
-0.111448
0.423124
0.337283
0.237090
0.155298
-0.176269
-0.693636
-0.203219
-0.100708
-0.175314
0.258301
0.178477
0.164444
0.170834
0.118339
0.899785
0.042802
0.116614
0.133800
0.228781
-0.036612
0.035345
-0.210630
0.109101
-0.426715
-0.585214
0.375598
-0.409431
-0.200271
-0.313434
0.044279
-0.245447
-0.607259
-0.101005
0.021532
-0.601403
-0.094096
-0.287941
-0.054649
-0.233086
0.275295
0.839095
-0.633599
-0.565970
0.048946
-0.026052
-0.331770
-0.013429
0.698859
0.499564
-0.396826
-0.152428
0.069881
-0.058252
-0.185620
-0.014801
0.485597
0.372539
0.236764
-0.194196
0.165488
-0.037228
-0.155371
0.195825
-0.120800
0.094118
1.231249
0.758469
0.157033
0.143430
0.235265
0.287325
0.091002
0.359863
1.372053
0.477347
0.106279
0.128510
0.168218
0.256982
1.184686
0.759349
1.387323
-0.078964
-0.469541
-0.294276
0.326335
1.148237
0.851825
0.175146
0.134006
-0.185682
-0.600528
-0.623722
0.160067
1.202320
-0.111533
-0.008752
-0.224420
-0.181872
0.072063
-0.572451
0.327958
0.971885
0.167427
-0.084454
-0.322050
0.094423
0.332870
-0.187653
0.000851
-0.594823
0.635608
0.077106
-0.894356
0.049517
1.246986
0.392585
0.573726
-0.232180
-0.729074
-0.258463
-0.458760
0.014331
0.258388
0.266193
1.035954
0.304375
-0.575681
0.125871
-0.157705
0.008039
0.059112
0.704615
0.529754
0.082583
-0.159735
-0.099096
0.003434
-0.142309
0.282871
0.481267
0.814364
0.662221
-0.006374
0.229940
0.565692
0.937202
-0.008793
0.704496
-0.028224
0.255927
-1.542503
-0.313939
0.623800
-0.751179
-0.817347
0.030337
0.134920
0.592686
-0.247699
-1.124138
-0.164165
-0.880738
-1.275449
-0.013885
0.226245
1.423826
0.144189
-0.623857
-0.082363
0.007604
-0.195567
0.093160
-0.032063
0.511182
-0.110496
-0.847873
0.263046
0.990994
0.940797
0.106194
-0.391925
0.087698
-0.227442
0.227130
0.860533
0.176144
0.009251
0.052217
-0.355163
-0.057940
-0.353283
-0.628699
0.370112
-0.072721
-0.013129
-0.021349
-0.352019
-0.021009
-0.073556
-0.366141
1.003718
-0.100850
-0.027883
-0.065144
-0.033405
0.166262
-0.383851
0.279035
-0.002274
-0.032141
-0.061019
-0.094055
-0.154107
0.226549
-1.123355
-0.349501
0.183279
0.065969
0.034154
0.003620
0.075559
0.420828
-0.054376
0.214029
-0.092085
0.567909
0.158368
0.566078
0.078645
0.326228
-0.049957
0.036202
0.105059
0.774348
0.651987
-0.186952
-0.586441
-0.109496
-0.349944
0.035182
0.300851
-0.078700
-0.102076
-0.220862
-0.361045
-0.054357
0.067308
-0.139128
0.469295
0.047149
0.060714
-0.032699
-0.052070
0.125403
0.109793
0.216013
-0.060698
0.048483
0.117999
0.142343
0.320152
0.007143
0.001027
0.001027
0.001027
0.001027
0.001027
0.001027
0.001027
0.001027
0.001027
0.001027
0.001027
0.001027
0.001027
0.001027
0.001027
0.001027
0.001027
0.001027
0.001027
0.001027
0.001027
0.001027
0.001027
0.001027
0.001027
0.001027
0.001027
0.001027
0.001027
0.001027
0.001027
0.001027
-0.543595
0.495381
0.119381
0.513206
0.486219
0.639739
0.108140
0.595820
-0.206578
-0.211190
-0.054312
-0.023041
-0.010573
-0.442278
0.122786
0.023200
-0.358159
0.467882
0.156083
0.105768
-0.414095
-0.472266
-0.899250
-0.321894
0.538467
-0.030570
0.560533
-0.219599
-0.455534
-0.578126
-0.415023
-0.386037
-0.513635
-0.316950
-0.513503
-0.529323
-0.003771
-0.253788
0.057856
-0.205282
0.456403
-0.651568
-0.119734
-0.155356
0.383713
0.123052
-0.131159
-0.150768
-0.069135
-0.008245
-0.612289
-0.050255
0.259889
-0.261837
-0.325535
0.316333
0.233946
0.548640
-0.233920
-0.146278
-0.247348
-0.288473
-0.122318
-0.065143
0.344441
0.868479
-0.756266
0.064709
0.172999
-0.741237
-0.332769
-0.303780
-0.384795
0.266955
-0.025731
-0.029138
0.580067
-0.125050
0.011734
0.020950
-0.876805
0.404716
0.328151
0.064354
0.439167
-0.366926
-0.247918
-0.303354
-0.724304
0.104667
-0.099760
0.033873
0.002440
-0.094203
-0.101731
0.013493
-0.289925
0.223815
-0.528677
-0.098692
0.106936
0.498250
0.027151
0.158660
0.004245
-1.002037
-0.805807
-0.088093
0.051379
-0.237563
0.141444
0.251005
-0.283705
0.504800
-0.730297
-0.091914
0.178148
0.078709
0.191812
0.440602
-0.201178
0.812181
0.083110
-0.048724
0.194303
-0.028509
0.269472
0.702206
-0.107848
-0.122604
-0.151104
0.059607
-0.294265
-0.447403
0.023023
-0.400595
0.723516
-0.151066
-0.060953
0.107787
-0.122005
-0.258875
0.051485
-0.712382
-0.255243
-0.280378
-0.116626
-0.040797
-0.070787
-0.318578
-0.010507
-0.623922
-0.363118
-0.170948
0.361783
0.568731
-0.079610
-0.045275
0.150456
0.314058
-0.403957
0.093468
0.547001
0.046788
0.048406
-0.085387
0.229571
0.664797
1.621458
0.512252
-0.048318
-0.028388
-0.001151
0.585361
-0.159121
-0.427280
0.621650
-0.075022
-0.132743
-0.170018
0.308113
0.295979
0.426376
-0.340965
0.723552
0.305130
-0.035220
0.090964
-0.044786
0.289232
0.259700
-0.094455
-0.497461
0.268082
0.356783
0.172360
-0.037803
0.818655
0.874103
0.292879
-0.042955
0.245876
0.310238
0.181815
0.088350
-0.249789
-0.198154
0.450943
0.039595
0.055752
0.267588
0.047096
-0.603121
-0.709548
-0.402789
-0.093399
0.064233
0.111218
-0.120494
0.049653
-0.196609
-0.925367
0.108532
-0.284694
0.529882
0.060564
-0.502617
-0.107160
-0.953274
-0.698997
0.608822
0.044557
1.513543
0.139368
-0.288696
-0.247259
0.834094
1.008970
-0.185538
-0.520456
1.057459
0.096869
-0.074820
-0.135521
0.791450
0.466307
-0.246085
-0.395490
0.646815
0.015726
0.013328
-0.395679
-0.058113
0.022745
0.164182
-0.219715
-0.300815
-0.514010
0.021552
-0.545048
0.011559
-0.263315
-0.042972
-0.409999
0.388233
0.039122
-0.048985
-0.354060
-0.114088
0.423985
-0.212230
0.081368
-0.388568
-0.297232
-0.228926
-0.230088
0.483214
-0.160549
0.197595
-0.105286
-0.310469
-0.007169
0.188478
-0.215311
-0.370474
0.521092
0.656815
-0.191617
-0.134045
-0.049516
0.087664
-0.217475
0.685299
0.276857
-0.051466
0.216515
0.385540
0.376156
0.524985
0.504136
-0.047524
-1.207872
-0.465073
0.817464
-0.176531
0.492662
-0.084874
0.874512
0.127440
0.220368
0.208655
0.344494
-0.211650
-1.390409
-0.011459
0.555172
-0.647928
-0.164403
0.190925
0.376257
-0.073356
0.012027
0.187254
0.584781
-0.126050
-0.812328
0.078618
0.173099
-0.093279
0.255371
0.269881
0.506329
0.142069
0.335681
0.234799
0.115901
0.198617
-0.038173
-0.033662
0.370639
0.172540
0.330711
0.397923
0.071964
-0.526215
-0.151122
-0.412592
0.417124
0.116729
0.191991
0.743524
0.496334
-0.091192
-0.386617
-0.248664
0.352253
0.138250
0.278812
0.476503
-0.155468
-0.425182
-0.544987
-0.209419
0.347513
0.196627
0.029619
0.054023
-0.037291
-0.245877
-0.279668
0.185646
0.343743
-0.120945
0.046243
-0.063962
0.169605
-0.290848
-0.780397
0.268945
-0.104001
0.011130
-0.011446
-0.237114
0.141866
-0.670458
-0.669323
-0.361737
-0.246279
0.422145
-0.041134
-0.126992
0.129774
-0.651325
-0.383829
-1.123514
0.227423
0.383987
0.125279
-0.239719
-0.092414
-0.044217
0.025531
0.240619
0.074294
-0.030494
0.128622
0.019185
-0.446673
-0.211963
0.079571
-0.260911
0.005361
0.156473
0.111530
0.434184
0.139117
-0.213915
0.224276
-0.000935
-0.086915
0.027276
0.083166
0.209227
-0.415995
0.164048
-0.058208
-0.137798
-0.093945
-0.246285
-0.025132
0.326832
-0.405411
0.175374
-0.371045
-0.219616
-0.187331
-0.258339
0.278217
0.302080
-0.693317
0.768225
0.464530
-0.006852
1.165623
0.953322
0.263605
-0.314115
0.015904
0.931134
-0.214036
-0.245796
-0.335718
-0.192084
-0.034710
-0.199275
0.087253
-0.105876
-1.160049
-0.193117
0.190095
0.182052
0.056817
-0.231321
0.183760
-0.014700
-0.760461
0.191544
-0.157779
0.348796
-0.131522
-0.371230
-0.035728
-0.148999
-1.127345
-0.100662
-0.404611
0.381140
0.179657
-0.144860
-0.035455
-0.044612
-0.457847
-0.949590
-0.033147
-0.077023
0.478163
1.213885
1.254463
-0.251714
-0.047686
-0.752963
0.332694
0.365458
0.051634
0.427731
-0.729054
-0.266147
-0.213843
0.273670
0.331806
0.405891
0.007016
-0.905513
-0.267488
0.155134
0.365322
0.008281
-0.062630
0.080131
-0.144963
0.156497
0.317226
-0.293604
0.264435
0.330072
-0.192939
-0.319636
-0.144980
0.627166
-0.328068
0.394341
0.003157
-0.104514
-0.383245
-0.598337
-0.466349
0.032309
-0.681526
-0.115428
0.262252
0.228726
-0.063835
0.263673
0.086245
0.116010
-0.426197
0.417525
0.806080
1.121947
0.135083
0.316799
0.256508
0.109033
-0.159676
0.579533
0.314047
-0.308948
0.546628
-0.476207
0.000436
-0.049423
0.126863
0.275824
-0.110457
-0.130968
0.520343
0.009855
0.002384
0.088121
0.263826
0.203172
0.047068
-0.072073
-0.089454
-0.022153
-0.040017
0.111537
0.298098
-0.002757
-0.104855
-0.605953
-0.255939
-0.702404
-0.295522
-0.247909
0.049245
0.342506
-0.349070
-0.578113
0.147583
0.299393
-0.212918
-0.241258
0.028489
-0.232513
-0.312136
-0.272030
0.063501
-0.116533
0.291029
0.026898
0.056325
-0.778988
-0.070991
-0.362258
0.984827
0.121144
0.402592
0.147494
0.776022
0.344868
-0.148315
-0.103429
0.730466
0.031556
-0.182615
0.147313
0.812734
0.450735
-0.151935
-0.075938
0.017702
-0.289767
-0.507198
-0.658295
-0.416547
0.125333
-0.498222
-0.146362
0.631408
-0.139266
-0.896316
-0.273275
-0.195938
0.833619
1.147133
0.311651
-0.108313
0.051939
-0.447466
-0.166941
-0.160424
-0.297135
0.565083
-0.227187
0.036128
0.029425
-0.013335
-0.741397
-0.079663
-0.267600
-0.073514
-0.149038
0.372119
0.238474
-0.082443
-0.475680
0.235974
0.270453
-0.035004
-0.024324
0.311869
-0.074439
-0.016982
-0.203676
0.106327
-0.347737
-0.107186
0.442838
-0.380547
-0.009062
0.389586
0.231830
0.125284
0.130122
-0.358724
0.453188
-0.037356
0.166098
0.379726
-0.168126
0.073008
0.095177
-0.174884
0.000810
0.077756
-0.072121
-1.048788
0.042696
-0.345433
-0.391916
0.021367
0.308350
0.359880
-0.530583
-0.280660
0.208881
-0.152318
0.134352
-0.661966
0.517918
0.056920
-0.259197
-0.021109
0.037075
0.291970
0.091409
-0.339235
0.461351
0.204881
0.105363
0.019013
0.069786
0.189400
-0.058620
-0.808391
0.181178
0.460746
0.157255
-0.014645
0.024118
1.131032
0.322987
0.374081
0.972927
0.483727
-0.099634
-0.097310
0.044602
0.611927
0.746230
0.230505
0.578463
0.454818
-0.214527
-0.203979
-0.144554
0.518580
0.344834
-0.317028
-0.001437
0.113587
-0.661987
0.552329
-0.073712
0.119190
-0.540228
-0.285135
0.211201
0.184385
-0.504976
-0.683109
0.078788
0.282007
-0.604772
-0.539916
0.784326
0.273745
-0.097166
0.135475
0.120506
0.660984
0.010417
-0.974345
0.187889
0.120919
-0.140125
-0.003209
0.043431
0.444372
0.031979
-0.937354
-0.033622
0.628463
0.065783
-0.011784
0.254879
0.345838
-0.433604
-0.001273
-0.001273
-0.001273
-0.001273
-0.001273
-0.001273
-0.001273
-0.001273
-0.001273
-0.001273
-0.001273
-0.001273
-0.001273
-0.001273
-0.001273
-0.001273
-0.001273
-0.001273
-0.001273
-0.001273
-0.001273
-0.001273
-0.001273
-0.001273
-0.001273
-0.001273
-0.001273
-0.001273
-0.001273
-0.001273
-0.001273
-0.001273
0.400252
-0.133894
-0.085747
-0.153202
-0.176951
-0.239411
-0.059087
-0.201928
-0.080178
0.609354
0.205651
0.167938
-0.104859
0.146335
0.287005
0.406715
0.197390
0.343443
0.013547
0.066265
0.125972
0.255353
-0.199290
-0.067362
0.825542
-0.345265
-0.276597
0.160097
0.294528
0.074184
0.319886
0.178446
-0.081518
-0.911173
0.273364
0.183596
0.195913
0.031455
0.168605
0.240475
0.058202
0.405708
-0.041484
-0.316959
-0.310388
-0.296374
0.289227
-0.215372
0.132623
0.140688
-0.424850
0.156284
-0.139482
-0.047594
-0.013140
0.290341
0.243958
-0.192180
-0.126919
0.082527
0.418153
-0.147335
-0.263372
-0.274145
-0.501945
-0.142678
0.241249
0.225032
0.234392
0.140900
-0.116103
-0.012550
0.068782
-0.144290
-0.017393
0.118860
-0.195542
-0.043171
0.266040
0.157658
0.115527
0.225006
0.113012
0.022703
0.165034
0.496643
-0.133232
-0.622637
-0.238305
-0.014810
-0.262749
-0.013497
-0.302256
-0.230170
-0.139298
-0.389713
0.299403
-0.745477
-0.400185
0.015651
0.044043
-0.377746
0.049494
-0.625190
-0.348672
0.645631
-0.502667
0.022224
-0.011260
0.157243
-0.056928
-0.397835
-0.005001
0.118709
0.070236
0.084441
0.086999
0.168120
-0.122836
-0.330540
-0.088179
-0.409780
-0.185069
-0.129904
0.357421
0.204470
-0.282692
-0.525600
-0.139862
0.216979
0.180704
-0.170678
0.394947
0.366043
-0.316482
-0.388245
-0.219809
0.044252
0.315640
-0.318544
0.267075
0.269317
0.165190
-0.011958
-0.463744
0.179609
0.263562
-0.072908
0.265913
0.303434
0.232245
0.107227
-0.132585
-0.012188
-0.587394
-0.438397
0.216281
0.291576
0.329986
0.276965
-0.189677
0.076603
-0.698321
-0.053753
0.069468
0.227992
0.498660
0.037864
-0.123550
0.174657
0.658529
0.050226
0.286145
-0.071770
0.322961
-0.115101
-0.221372
0.709434
0.185414
0.634038
0.022204
-0.764999
-0.649837
-0.115455
0.276870
0.044514
0.142625
0.489721
0.060348
-0.485953
-0.642265
-0.074156
-0.012393
0.002947
-0.024185
0.207029
0.125902
0.186779
-0.329327
-0.180133
-0.171143
-0.020733
-0.192164
0.148844
0.157533
-0.546451
0.031291
-0.080824
-0.148703
-0.135940
0.238162
-0.406309
0.056176
0.569024
0.287108
-0.418161
-0.835259
-0.083731
-0.713389
-0.201000
0.480334
0.521138
0.474727
-0.115667
-0.255963
-0.016558
0.541123
-0.030381
-0.272858
0.828202
0.748754
0.773056
-0.607756
0.090016
0.813465
-0.209065
0.132007
-0.066960
-0.000961
0.521312
-0.120448
0.013336
0.077749
-0.490219
-0.147402
0.593079
0.029160
0.474692
-0.294858
-0.113298
0.022163
-0.172941
0.075287
0.032771
-0.521924
-0.273182
0.520895
0.589492
-0.024902
0.160601
0.691411
-0.271409
0.023742
-0.672270
-0.025687
0.010125
-0.038760
0.443876
1.119001
0.106126
-0.439983
-0.360291
-0.182952
-0.216058
0.073241
0.339994
0.192179
0.715656
-0.177444
-0.333054
-0.574529
-1.184818
0.747320
0.144268
-0.148628
0.317446
-0.292104
-0.320039
-0.531226
-0.050382
-0.334358
0.169649
-0.042200
-0.347963
-0.113074
-0.239526
-0.553234
0.089843
-0.779453
-0.173440
0.497508
0.601403
0.269729
0.094466
-0.239544
-0.321037
-0.745065
-0.372875
0.556077
1.073746
0.024781
0.353761
-0.029558
-0.100162
-0.607757
-0.246708
0.849295
0.312210
0.012817
0.339633
-0.109900
-0.753093
-0.058709
0.141760
-0.427375
0.369661
0.235388
0.349640
-0.141038
0.161839
0.152444
-0.277217
-0.147949
-0.106396
-0.429011
-0.310422
0.267024
0.217843
0.225363
-0.219364
-0.107582
-0.223818
-0.129512
-0.279708
0.216689
0.204540
-0.146491
-0.428203
-0.027406
-0.198527
-0.615022
-0.141623
-0.124206
0.379002
0.324900
-0.233465
0.040771
-0.284622
-0.539397
0.162825
0.412383
0.457923
0.586957
-0.023793
0.059670
-0.058110
-0.773273
0.128177
0.220858
0.441314
0.286338
0.408985
0.171410
0.493727
-0.164016
0.167928
0.006123
0.745890
0.465543
0.058181
0.172410
-0.446572
-0.430769
-0.200486
0.040578
0.351994
0.326541
0.200423
-0.508556
-0.086565
-0.336141
0.330116
0.269417
0.281743
-0.020544
-0.273480
-0.315641
-0.067972
-0.243800
0.330712
0.379135
-0.540231
-1.027212
-0.374697
0.330229
-0.345337
-0.334237
-0.318124
-0.201596
-0.337206
0.114464
-0.075785
-0.065645
0.315524
-0.174712
-0.502613
-0.054023
-0.143544
-0.275285
-0.483794
-0.252915
0.292422
0.129959
-0.593543
-0.123165
-0.057964
-0.173024
-0.389707
-0.082663
0.136661
0.119419
-0.427067
-0.287814
0.224572
-0.101409
-0.295265
0.407368
0.414551
0.406483
-0.390936
-0.758841
-0.267075
-0.038510
0.128897
-0.603557
0.340775
0.595332
-0.158289
0.137197
0.411234
-0.524879
-0.259617
0.205090
-0.126689
0.228359
-0.359556
-0.067672
0.002522
-0.013769
0.026861
0.250886
0.224739
0.337929
-0.295412
-0.168636
0.576315
0.343488
0.292721
0.106294
0.254259
0.141369
0.037646
-0.189437
0.137764
0.565498
0.541869
0.706799
0.718242
0.484045
0.482607
0.172132
0.309697
0.947170
0.387939
0.755190
0.625000
-0.327906
-0.287410
-0.231402
0.178617
-0.038724
-0.214575
-0.060825
-0.088995
-0.299416
0.698756
0.460844
0.730557
0.122816
-0.194974
-0.039260
-0.190965
0.042650
0.257114
0.590233
0.076657
-0.389985
-0.230474
-0.069125
0.040024
0.037047
0.289125
0.608791
-0.105957
0.153289
-0.088348
-0.255643
-0.060144
-0.461045
-0.405031
-0.661039
-0.286439
-0.125975
0.037800
-0.098084
0.214554
0.370908
0.269234
-0.386371
-0.111787
-0.041329
-0.622472
-0.585879
-0.145994
-0.031085
-0.435565
0.202233
0.014979
-0.177840
-0.174604
-0.579395
-0.306756
-0.002689
-0.222531
0.197190
0.295047
0.087939
0.297301
-0.236051
-0.056882
-0.006982
-0.225236
0.105776
0.119009
0.095517
0.265633
-0.383107
0.011577
0.007528
-0.194045
0.207993
0.151647
0.029339
0.043649
-0.361262
0.016820
0.052745
-0.298311
0.039138
-0.088130
-0.220497
-0.881146
-0.571762
-0.498525
0.015556
-0.487938
-0.243720
0.086551
-0.742093
-1.210383
-0.263298
-0.259210
-0.456635
-0.191697
0.380773
-0.535726
-0.629102
-1.188142
-0.033074
-0.519141
-0.576272
-0.376447
0.063488
-0.531773
-0.193490
-0.908792
0.084128
0.279528
-0.189404
-0.765137
-0.792265
0.146564
-0.075820
-0.634640
0.242474
0.172554
0.301723
-0.345420
-0.431505
-0.196332
0.162302
0.182009
-0.301385
-0.261634
0.162865
-0.074142
0.639194
-0.272210
-0.284904
0.025863
-0.355279
-0.060424
0.000310
-0.960675
-0.201299
-0.275764
0.321986
0.605025
0.121033
0.138272
-0.145906
-0.575064
-0.044464
0.715958
0.020807
0.489532
0.120242
0.042130
-0.022636
-0.289405
0.433267
0.089194
-0.005659
0.359187
0.288958
-0.083627
-0.071824
-0.411821
-0.597213
-0.006466
-0.070528
-0.306246
-0.759863
0.077218
-0.911025
-0.127072
-0.158670
0.744872
-0.266550
0.026914
0.590118
-0.562037
-0.219680
-0.224116
-0.709484
-0.125650
0.377662
0.271699
0.589019
0.578087
0.214072
-0.644549
-1.280581
-0.087820
0.451926
-0.267151
-0.596680
0.481359
0.172435
0.506029
0.016049
-0.001541
0.107921
-0.642360
-0.237764
-0.188587
0.309528
0.476785
0.309036
0.504556
-0.393848
-0.283121
-0.338746
0.062129
-0.142682
0.367227
0.455114
0.323099
0.126589
-0.823386
-0.039534
-0.164342
-0.113065
0.834104
0.458517
-0.249306
-0.085941
-1.003454
-0.040423
-0.274213
-0.132913
-0.347359
-0.089160
-0.535594
-0.758425
-0.158412
0.091770
-0.033449
-0.027869
0.306374
-0.660299
0.034140
-0.178623
-0.199342
0.005331
0.025935
0.055073
-0.496428
-0.639508
0.212430
-0.109900
0.055380
0.044400
-0.284624
-0.059311
-0.026300
0.283605
0.293300
-0.126406
-0.125337
-0.256024
0.006432
0.167393
0.265345
1.074517
0.820892
-0.288927
-0.263398
0.023563
-0.071525
0.125730
-0.217373
0.261988
-0.199646
-0.591560
-0.423398
0.043568
-0.033278
0.062829
-0.324206
0.097362
-0.306734
-0.114038
-0.422566
-0.003740
-0.059885
-0.102302
-0.516469
0.520382
-0.000494
-0.000494
-0.000494
-0.000494
-0.000494
-0.000494
-0.000494
-0.000494
-0.000494
-0.000494
-0.000494
-0.000494
-0.000494
-0.000494
-0.000494
-0.000494
-0.000494
-0.000494
-0.000494
-0.000494
-0.000494
-0.000494
-0.000494
-0.000494
-0.000494
-0.000494
-0.000494
-0.000494
-0.000494
-0.000494
-0.000494
-0.000494
0.109978
-0.199996
-0.012592
-0.187977
-0.168658
-0.245909
-0.007129
-0.269671
0.180387
0.196710
0.064417
0.041651
0.006364
0.209859
0.011590
0.105047
0.169680
0.004303
-0.023215
0.001398
0.206278
0.286206
0.185552
-0.017815
0.107817
-0.060186
-0.190004
0.132405
0.302326
0.293619
0.252095
0.187630
0.150214
-0.260716
0.251932
0.221634
0.068434
-0.028203
0.033115
0.110849
-0.143329
0.222311
0.005567
-0.071015
-0.241471
-0.173575
0.141050
-0.043957
0.044515
-0.040444
-0.054563
-0.054648
-0.150876
0.050315
0.108353
0.076013
-0.104166
-0.245426
-0.097023
-0.012914
0.229681
0.021714
-0.054110
-0.019280
-0.443694
-0.266364
0.348157
0.041504
0.161350
0.344058
0.153643
0.140731
0.130362
-0.140060
-0.025936
0.036827
-0.270513
-0.109083
0.087418
0.061274
0.283416
-0.096116
-0.099541
-0.034989
-0.073309
0.222865
-0.068785
-0.232070
0.057162
-0.025636
-0.049073
-0.025051
-0.131858
-0.105453
-0.144751
-0.084325
0.166455
-0.448115
-0.071220
-0.018012
-0.051863
-0.309496
-0.006946
-0.199326
-0.147819
0.656346
-0.090521
-0.053035
-0.059662
0.106890
-0.056347
-0.169859
0.100000
-0.066185
0.087671
-0.029073
-0.072219
0.035278
-0.083486
-0.290404
0.084471
-0.345934
-0.152023
-0.037677
0.017976
0.090464
-0.175276
-0.465105
0.069787
0.076857
0.040309
-0.033956
0.174680
0.160999
-0.123825
-0.067815
-0.114626
0.077699
0.120407
-0.092439
0.116185
0.121308
-0.024773
0.207925
-0.043393
0.152637
0.086823
0.007037
0.147455
0.154508
0.004193
0.147653
0.138938
0.027911
-0.371843
-0.270923
0.122732
0.086014
-0.006727
-0.055193
0.145744
0.027687
-0.414838
0.007099
0.020202
0.081408
0.045201
-0.164770
-0.441639
-0.107408
0.242634
0.022394
0.039725
-0.288132
0.030255
-0.014508
-0.359854
0.272175
0.145807
0.255798
-0.108327
-0.411376
-0.478558
-0.065790
-0.097202
0.014959
0.070063
0.102382
0.055719
-0.245916
-0.301960
-0.110315
0.204090
-0.002963
-0.055076
0.004836
0.058592
-0.132024
-0.437464
-0.320231
-0.071339
-0.006310
-0.104358
-0.017945
0.013081
-0.021498
0.050959
-0.291907
-0.067289
-0.063638
-0.105275
-0.133946
0.175766
0.401525
0.208416
-0.056549
-0.185900
-0.073775
-0.324511
-0.090722
0.191897
0.295932
0.117069
0.228639
-0.050052
-0.015202
0.289287
0.009223
0.033585
0.574068
0.234862
0.353602
-0.482095
0.027724
0.438080
-0.012956
-0.155838
-0.105898
0.021795
0.389172
-0.154043
0.003465
0.125314
-0.114064
-0.234318
0.302605
0.053308
0.300363
-0.214673
-0.054674
-0.005211
-0.002000
0.035485
0.022526
-0.299519
-0.107672
0.240597
0.395195
0.004234
0.185283
0.259602
-0.118904
0.043560
-0.210920
-0.154508
0.001699
0.002600
0.264155
0.536579
-0.129696
-0.071242
-0.101514
0.005224
-0.103389
0.079625
0.199305
0.157249
0.450573
-0.099606
-0.070581
-0.203582
-0.531499
0.093773
0.122149
0.003838
0.183937
-0.217599
-0.056167
-0.200493
0.076198
-0.191700
0.103135
-0.292231
-0.249770
0.010210
-0.100508
-0.251663
-0.008810
-0.427578
-0.200782
0.172114
0.429296
0.302590
-0.138599
-0.061868
-0.326561
-0.197510
-0.371569
0.153633
0.286359
-0.035569
-0.003003
0.093907
0.330633
-0.222791
-0.319088
0.547728
0.212380
-0.066195
-0.038362
-0.019892
-0.300709
-0.039912
-0.122400
-0.087324
0.522603
0.007454
0.014666
-0.043650
0.012140
0.013457
-0.222088
-0.089161
-0.092420
-0.086312
-0.026237
0.012047
0.107519
0.113056
-0.170630
-0.082991
-0.143791
-0.094525
-0.180124
0.204158
0.119848
0.014438
-0.281644
-0.036676
-0.130436
-0.421374
-0.129384
-0.032386
0.239277
0.230097
-0.127451
-0.014763
-0.186506
-0.347280
0.114564
0.284834
0.315835
0.416945
-0.077140
-0.042712
-0.034368
-0.314170
0.054889
0.150431
0.249482
0.028384
0.051763
-0.055525
0.224409
-0.018000
0.020663
0.027029
0.485126
0.086051
-0.027370
-0.006984
-0.178465
-0.148852
-0.001743
0.090406
0.312836
0.231175
0.077292
-0.304838
0.026378
-0.048152
0.100215
0.238905
0.287450
0.271582
-0.170993
-0.239381
-0.001901
0.023205
0.112106
0.232679
-0.181031
-0.460078
-0.171015
0.135747
-0.183042
-0.135325
-0.022807
-0.055853
-0.117271
0.161702
0.033138
-0.049838
0.115338
-0.263778
-0.179137
-0.017300
-0.129397
-0.118389
-0.187753
-0.082504
0.061179
-0.070594
-0.167174
-0.029840
-0.002576
-0.037372
-0.122681
0.033042
0.022998
-0.042938
-0.060099
-0.189584
0.202041
0.017253
-0.063769
0.342143
0.176210
0.126348
-0.011179
-0.534204
-0.188221
-0.086888
-0.286808
-0.374007
0.166789
0.325881
-0.067820
-0.040523
0.226030
-0.222719
-0.045516
0.014720
0.006513
0.154588
-0.125818
0.039749
0.304922
0.021231
-0.073429
0.055721
0.061595
0.174754
-0.143088
-0.022256
0.364765
0.047535
0.122841
-0.007477
0.121256
0.106122
-0.074106
-0.036400
0.347021
0.199583
0.289549
0.257522
0.302842
0.146991
0.077361
-0.021053
0.189500
0.628909
0.176028
0.326948
0.167669
-0.355875
-0.507171
-0.075698
0.081697
0.081321
-0.226057
-0.199804
-0.156446
-0.250506
0.499545
0.335516
0.207679
-0.173456
-0.229401
-0.202600
-0.219228
0.240125
0.112719
0.254370
0.010817
-0.264216
-0.166621
-0.104049
0.074531
-0.017701
-0.083859
0.395944
0.032952
0.043880
-0.118011
0.048650
0.073402
-0.382445
-0.140324
-0.277256
-0.187928
-0.018585
0.138008
0.085993
0.186626
0.122712
0.235792
-0.091550
-0.169457
-0.135561
-0.153504
-0.263091
-0.092150
-0.058943
-0.079046
-0.005610
-0.222538
-0.373936
-0.116161
-0.283072
-0.198332
-0.047375
-0.061011
-0.050214
0.065541
0.174300
-0.152747
-0.035181
-0.014313
0.001452
-0.162473
0.008171
0.130663
0.111416
-0.050805
-0.169890
0.020276
-0.013105
-0.085009
0.071515
0.117661
0.044924
0.016660
-0.169816
0.017715
-0.015176
-0.121831
0.084928
-0.007997
0.120421
-0.261168
-0.015136
-0.065385
0.045415
-0.217245
-0.188741
0.098730
-0.219717
-0.526897
-0.098433
-0.014948
-0.049073
-0.091164
0.238351
-0.045678
-0.170050
-0.486974
0.044326
-0.152162
-0.219945
-0.171783
0.295274
-0.051992
-0.047038
-0.679718
-0.016420
-0.030733
-0.178999
-0.573330
-0.329648
0.095319
-0.020441
-0.296576
0.064521
0.102794
0.046137
-0.402890
-0.248677
-0.083496
0.094628
0.001426
-0.042940
-0.136287
0.163203
-0.102932
0.219781
0.189792
0.003988
-0.181220
-0.122803
0.279447
0.102710
-0.315966
-0.117632
-0.392877
0.123987
0.376588
0.053792
0.191011
-0.029847
-0.079784
0.170982
0.225659
0.033550
0.270210
0.068729
0.014906
0.184153
-0.149159
0.244121
0.036790
0.018647
0.051760
0.073649
-0.003293
0.107099
-0.261833
-0.299536
0.007406
-0.041288
-0.181177
-0.335774
0.043521
-0.356397
-0.011691
0.015911
0.448778
-0.172819
0.101642
0.161201
-0.482674
-0.174128
-0.060035
-0.304708
0.206997
0.061414
0.188293
0.200560
0.153759
0.116877
-0.140046
-0.502938
0.195228
0.252529
-0.058358
-0.266545
0.473853
0.045458
0.298404
0.122373
0.063615
-0.027597
-0.209247
0.026680
0.008380
0.078331
0.208056
0.302873
0.449848
-0.363912
-0.132063
-0.123070
0.034680
-0.037670
0.102379
0.099363
0.240458
-0.093465
-0.434271
0.012825
-0.024185
-0.035535
0.235461
0.138808
0.078039
-0.209161
-0.571235
-0.023810
-0.064311
-0.042942
-0.513504
-0.200650
-0.292521
-0.642081
-0.258063
0.088168
0.029689
-0.021646
-0.106396
-0.567977
-0.154656
-0.384744
-0.270114
0.065276
0.068618
0.060849
-0.229817
-0.431926
0.228847
-0.040835
-0.012207
0.052168
-0.225663
-0.032416
-0.043855
0.161323
0.204388
-0.101614
-0.091893
0.067589
0.176935
0.025085
0.014845
0.628007
0.498539
-0.374669
-0.166558
0.026259
-0.099399
-0.008831
-0.268078
0.120310
0.274262
-0.437403
-0.251829
0.032351
-0.019455
0.007384
-0.286301
0.066935
0.224722
-0.053744
-0.355938
-0.016488
-0.030940
-0.105730
-0.306788
0.336040
0.001111
0.001111
0.001111
0.001111
0.001111
0.001111
0.001111
0.001111
0.001111
0.001111
0.001111
0.001111
0.001111
0.001111
0.001111
0.001111
0.001111
0.001111
0.001111
0.001111
0.001111
0.001111
0.001111
0.001111
0.001111
0.001111
0.001111
0.001111
0.001111
0.001111
0.001111
0.001111
-0.075324
-0.068793
0.018415
-0.060891
-0.038991
-0.051632
0.007043
-0.066056
-0.381890
-1.106975
-0.316037
-0.177882
0.178483
0.191088
-0.423369
-0.905848
-0.149544
-0.717076
-0.289459
-0.207528
0.249841
0.263967
0.498217
-0.466601
-1.586580
0.730109
0.163929
-0.161264
0.294866
1.025952
0.242262
-0.000320
0.484816
1.087214
-0.131949
-0.044192
0.335502
-0.230529
-0.289475
-0.460427
-0.536099
-0.493695
-0.065828
0.517366
-0.168309
-0.011902
-0.193112
0.264328
-0.212523
-0.719430
-0.035689
-0.860315
-0.322062
0.050018
0.161446
-0.068101
-1.199896
-0.464416
-0.643538
-0.416513
-0.444182
0.087001
0.182262
0.304613
-0.951672
-0.284199
0.029513
-0.584184
0.383114
0.824982
0.896489
0.479405
0.150522
0.140869
-0.195516
-0.290693
-0.426017
-0.359332
0.121848
0.215321
0.309538
-0.631257
-0.479627
-0.166006
-0.470986
-0.482760
-0.014933
0.361485
0.399998
0.006055
0.527231
-0.292690
0.074616
0.139564
-0.304596
0.930223
-0.182641
-0.406413
0.181565
-0.398699
-0.437160
-0.232540
-0.314238
1.210561
0.546018
0.821812
-0.025703
-0.574691
-0.348713
-0.147800
-0.020658
0.748737
0.511897
-0.037002
-0.494182
-0.557069
-0.548700
-0.240424
0.172366
-0.693191
0.905598
0.428620
-0.140393
0.053145
-0.862876
-0.055953
0.243285
-0.564062
1.152127
-0.376437
-0.416694
0.479854
-0.697339
-0.689228
-0.078526
0.240545
0.979891
0.170316
-0.153977
0.797588
-0.376996
-0.528387
-0.847540
0.344578
0.751677
0.029938
-0.302134
0.641269
0.023684
-0.450526
-0.895332
-0.399756
0.414167
-0.044312
0.369551
0.458825
-0.001682
-0.497081
-0.981552
-0.450684
0.527792
0.130212
0.792656
0.207583
-0.009121
-0.241350
-1.110282
-0.231670
-0.180601
-0.452067
-0.604516
-0.244149
-1.009690
-0.892602
-0.975956
-0.148063
-0.727274
-0.663210
0.478437
-0.756498
-0.415298
0.183073
-0.057878
-0.306856
-0.178282
0.237863
0.202077
-0.890766
0.275949
-0.063446
0.668857
-0.472700
0.771200
0.171783
0.052374
-0.329816
-0.052077
-0.350824
-0.126128
-0.937879
-0.081423
0.173184
0.176321
-0.291328
-0.275037
0.956713
-0.090131
-0.815185
-0.009045
0.144101
-1.435736
0.548522
-0.475060
-0.381591
-0.225929
1.043983
1.840607
-0.070354
-0.163603
0.236045
-0.720988
-1.036274
-1.209590
1.305456
1.274361
0.025211
-0.750225
0.008800
-0.239803
-0.218242
-0.262154
-0.351685
1.223244
0.041358
-0.317932
0.262401
0.280383
1.088545
-0.130136
-0.151093
1.084434
0.069494
0.352838
0.753324
0.700391
0.696936
-0.175365
-0.265522
0.617632
0.059252
-0.100022
0.163259
-0.119308
0.125373
-0.349110
-0.216658
-0.540609
-0.137470
0.216795
0.029569
-0.503454
-0.248321
0.211579
0.199254
-0.711878
0.062876
0.119398
-0.048762
-0.062006
-0.462394
0.879888
0.702796
-0.085603
-0.358017
-0.716895
-0.122470
1.093480
0.988775
0.517950
0.567110
0.162745
0.107110
-1.922546
0.018190
-0.178660
0.900386
1.084022
0.479200
0.311386
0.510892
0.036574
0.032713
-0.446834
-0.239920
0.196032
0.429157
1.352460
0.302954
0.764520
-0.179631
-0.357070
-1.276538
0.103672
0.074011
0.690352
-0.096705
1.107141
-0.232731
-0.441266
-1.349161
0.116349
-0.780753
0.817176
0.417635
0.393597
-0.297926
0.086883
0.696548
-0.168076
-0.925600
0.306529
0.395016
0.068548
-0.632238
0.668818
1.233001
-0.490705
-0.884266
0.177255
-0.219235
-0.144766
0.390669
0.136140
0.441867
1.509767
1.241013
-0.831812
-0.284946
-0.252241
0.265908
0.106159
0.343342
0.661161
0.008096
-0.392393
-0.358208
-0.172232
0.324588
0.032982
0.175361
0.813291
0.562721
-0.078647
-0.578010
-0.207805
0.700653
-0.006053
0.165834
0.232405
-0.021104
-0.260579
-0.606874
0.150937
0.087431
-0.206758
-0.037665
0.468530
-0.089504
-0.193145
-0.239824
-0.367478
-0.540479
-1.308677
-0.194122
0.432974
-0.249511
-0.245656
-0.517154
-0.386114
-0.328784
-0.524945
0.381813
0.086000
0.568870
-0.493464
-0.093362
-0.082351
-0.287941
0.378958
0.402268
0.730329
-0.500162
-0.233534
0.756428
0.351341
-0.096311
-0.011282
0.409425
0.716333
-0.511533
0.238627
0.428073
0.385315
-0.119474
-0.379302
0.103895
0.271964
0.200228
0.021600
0.532778
0.493510
0.541717
0.167383
-0.160957
-0.608252
0.395653
-0.275979
-0.047806
0.118743
0.301791
0.410611
-0.464877
-0.695423
-0.041920
0.437816
0.069358
0.114126
0.391363
0.150581
-0.289767
-0.292118
0.200330
0.059589
-0.010383
0.123196
0.453853
0.647688
0.257382
-0.261686
0.231273
0.275126
0.354615
-0.518096
-0.624121
1.217851
0.367750
-0.394877
0.228770
0.677016
-0.186593
-0.435687
-0.036482
-0.473567
0.385823
-0.177255
0.444926
0.372676
0.008302
-0.155552
-0.194245
-0.198343
-0.333822
-0.429598
0.310358
0.450239
-0.418031
-0.527085
-0.367996
0.056586
-0.257993
-0.302896
-0.447363
0.435859
0.362234
-0.484978
-0.507560
-0.256907
-0.058420
-0.776601
-1.198138
-0.726752
-0.519108
-0.504251
-0.126823
-0.567479
-0.200894
0.817979
-0.525685
-0.250172
-0.007423
-0.144767
-0.428398
-0.772827
-0.814451
-0.424793
-0.257305
0.145399
-1.158228
-1.486499
-0.524639
-0.835198
-1.111458
-0.313069
-0.885841
-0.036488
0.429336
-0.513731
-0.556466
-0.505728
0.152064
-0.012165
-0.825445
0.046651
1.059691
0.298167
-0.906761
0.839399
0.473553
-0.142808
0.104267
0.685612
-0.242234
0.165727
0.168689
0.037891
-0.167305
-0.586652
-0.216153
0.650503
-0.150292
-0.143714
1.077602
1.032938
0.085396
0.025738
0.543629
-0.158007
-0.339540
-0.357955
-0.077594
1.043016
0.167103
-0.032703
0.256399
-0.254345
-0.428187
0.006927
-1.187812
0.368491
0.080497
-0.019988
0.089496
-0.006981
-0.077430
-0.039793
-0.468939
0.276483
0.059160
0.029758
0.640140
-0.052408
0.035518
-0.099063
-0.294998
0.171676
-0.071137
-0.137837
0.825418
0.242368
0.243527
0.827385
0.560177
0.629348
1.036644
-0.202609
0.331252
-0.095071
-0.225796
0.390905
0.481104
0.378823
0.612229
1.025627
0.059447
-0.280938
0.737830
0.349451
0.563804
0.351613
1.676388
0.942109
0.134756
0.152690
1.230085
-0.156756
0.022393
-0.168974
-0.428796
0.125720
-0.083536
0.591905
-0.044828
0.038485
1.407640
-0.331817
-0.223443
-0.343799
-0.598237
0.002348
-0.108708
-0.005004
-0.528150
0.370114
-0.827196
-0.370748
-0.997235
-0.449603
1.284439
0.838243
-0.138332
0.434366
0.310831
0.123677
0.844154
1.215824
0.146089
0.192557
0.442455
-0.051934
-0.018933
-0.024353
0.887472
0.774297
-0.053798
-0.244272
0.113802
0.044295
-0.125463
-0.023563
-0.465916
-0.572229
-0.145545
-0.029706
-0.559112
-0.230148
0.027097
0.108199
-0.421119
0.282809
0.048403
-0.183767
0.073127
0.042608
-0.023155
0.334535
0.527196
-0.089006
0.965768
0.509132
-0.249580
-0.749404
-0.178378
-0.035248
0.482167
0.469062
1.639715
0.056547
0.176411
-0.154264
0.096591
-0.247112
1.566550
0.847010
1.443685
0.226340
0.718401
0.403001
0.173612
-0.368720
-0.321538
-0.038448
0.569357
0.219414
1.386287
-0.148605
-0.098028
-0.452547
-0.367204
1.073803
0.467315
-0.345505
-0.292161
0.001291
-0.037424
0.352932
-0.215090
-1.042655
0.143251
-0.169152
0.006899
0.448498
0.559034
0.325616
-1.203922
-1.032682
0.512436
-0.702850
-0.118091
0.298151
0.682956
0.316244
-0.731977
-0.860365
0.625274
-0.514620
-0.695518
0.163736
0.270566
0.084764
-1.093463
-0.679891
-0.421472
-1.222089
-0.765805
0.117565
0.095651
0.009850
0.972922
-0.380532
0.350406
0.123961
-0.034752
-0.957860
0.248817
-0.374580
-0.055842
-0.831087
-0.053292
0.147707
0.115542
0.349075
-0.068775
-0.282738
-0.261652
-0.510137
-0.245474
-0.567655
0.104320
0.016768
-0.201898
-0.290581
0.064222
-0.141311
1.405086
-0.394328
-0.177534
-0.159566
-0.056910
-0.134915
-0.118847
0.026315
1.507541
-0.168987
0.012636
-0.043751
-0.113219
-0.101133
0.135648
-0.295445
-0.002352
-0.002352
-0.002352
-0.002352
-0.002352
-0.002352
-0.002352
-0.002352
-0.002352
-0.002352
-0.002352
-0.002352
-0.002352
-0.002352
-0.002352
-0.002352
-0.002352
-0.002352
-0.002352
-0.002352
-0.002352
-0.002352
-0.002352
-0.002352
-0.002352
-0.002352
-0.002352
-0.002352
-0.002352
-0.002352
-0.002352
-0.002352
-0.146606
-0.124458
-0.005851
-0.148793
-0.094353
-0.045300
-0.060590
0.013546
0.245125
-0.151069
-0.139793
0.113351
-0.130159
0.353163
0.068196
-0.594900
-0.166714
-0.970897
-0.680710
-0.313466
0.097003
0.094248
0.264739
0.018018
-1.151368
0.146831
-0.939009
-0.187553
0.081682
0.361421
0.561476
0.117828
0.414077
0.849742
-0.000839
0.084132
0.987443
1.324575
0.066287
0.062045
-0.545997
1.286550
0.066213
0.488611
-0.390928
0.112957
0.105822
0.285772
0.090874
0.133422
0.492833
0.475944
0.035526
0.504892
0.004377
-0.342998
0.069097
-0.610496
0.229523
0.525836
-0.031679
0.349539
-0.193186
-0.551760
0.029363
-1.077599
-0.420197
-0.305512
-0.528384
0.498249
-0.342306
-0.187585
0.416178
0.416623
0.048852
-0.098205
-0.449546
1.299372
0.690381
0.523260
0.842442
0.046673
0.009959
0.110327
-0.466288
0.797319
1.131276
1.195436
1.244160
-0.161290
0.480191
-0.590499
0.189471
0.628381
1.102988
0.175446
0.431365
0.448091
0.977372
-0.047882
-0.299610
-0.520368
-0.189988
-0.029997
0.789990
0.274331
1.292868
0.194748
-0.116381
0.412813
-0.108534
-0.376301
0.597392
-0.005383
1.388778
0.295469
-0.116487
-0.159291
-0.034197
-1.022194
0.640160
0.088488
0.802086
0.128979
-0.263178
0.074451
0.056967
-0.300124
0.590874
0.016548
0.521612
0.143596
0.157081
0.659454
-0.367664
0.586424
-1.086212
0.122676
0.243997
0.301144
-0.023459
0.439022
-0.229628
0.574132
0.314947
0.172965
0.405082
0.612710
0.032387
0.517610
-0.056376
0.338134
-0.669079
0.143175
0.763479
-0.471811
0.059493
0.015595
-0.051899
0.432242
-0.741450
-0.130733
0.669052
-0.309702
0.020251
0.266428
-0.237446
-0.459386
-1.510359
-0.287849
-0.087500
-0.333909
-0.599254
-0.067316
0.223428
0.977299
-0.207446
-0.200126
0.308857
0.001775
-0.098063
-0.113679
0.685667
1.190857
0.058801
-0.659277
0.286423
-0.059840
0.254418
-0.937661
0.068186
0.520743
0.341217
-0.616498
-0.584313
0.027643
0.054361
-1.024051
-0.058010
0.411300
0.059298
-0.587479
-0.600463
-0.022614
0.021586
-0.598002
0.118467
0.224658
-0.095267
0.066186
-0.556931
0.118888
-0.583705
0.175624
0.140435
0.018247
-0.056317
-0.032230
0.446940
0.232389
0.195106
1.122525
-1.193448
-0.628727
-0.812553
-0.070935
0.198147
0.174438
1.255554
-0.779168
-1.222984
-0.836522
-1.001152
-0.289019
-0.349233
0.326935
0.262020
-1.115315
0.280925
-0.346905
-0.915887
-0.234079
-0.397266
0.343583
0.492113
-1.178346
0.163975
-0.063984
-0.275089
0.080580
-0.012109
0.793095
-0.019860
-0.015488
-0.287899
0.107567
0.049900
-0.031872
0.031883
0.657060
-0.164355
0.585115
0.026511
0.589311
-0.754989
-0.024420
0.101255
0.452974
0.169882
0.027116
0.419068
-0.091297
0.109211
0.680876
-1.077087
-0.012660
-1.085507
0.634148
0.250325
0.181360
0.711141
-0.046840
-0.585969
0.049925
0.170182
-1.170688
0.556972
0.269859
0.457143
-0.315772
0.487148
0.584700
0.411730
-0.343675
-0.131006
-0.183490
0.916466
-0.249154
0.393427
-0.333918
0.286424
0.389376
-0.365071
-0.524145
1.403241
0.474240
0.207560
-1.089077
0.183700
-0.600346
0.213276
-0.384467
0.878992
1.005444
0.195383
-0.067380
0.295310
0.999692
0.139050
-0.418737
0.220210
0.271455
-0.423115
-0.849957
0.442558
0.291536
0.548707
-0.260244
0.146879
-0.645976
-0.598062
-0.154973
-0.059678
-0.068796
-0.070453
-0.041473
-0.655664
-0.473740
-0.409307
-0.137502
-0.041317
-0.130747
-0.416773
0.123561
0.196309
-0.367589
0.498149
0.024723
-0.070651
0.123123
0.261193
-0.542909
0.117885
-0.309906
-0.155826
0.078262
-0.106146
-0.019966
0.050925
0.038947
-0.015397
-0.257932
-0.669617
-0.131218
-0.177421
-0.076905
0.163027
0.051953
0.015514
-0.003035
0.016968
-0.456350
0.116873
-0.617469
0.075740
-0.530558
0.332477
0.125133
-0.023660
0.583403
0.096057
0.480562
0.438722
-0.531733
0.745299
0.321169
0.067128
0.705349
0.107720
-0.080968
0.250063
-0.627770
0.468958
0.635235
1.279793
-0.475698
-0.206056
-0.180035
0.287679
-0.007187
-0.339874
-0.323854
-0.356538
-0.489987
-0.348451
0.055160
0.173889
0.745841
0.469932
0.042011
0.193976
-0.030636
-0.083679
-0.400759
-0.227586
-0.718858
0.607135
0.014884
0.160172
0.504618
0.252082
-0.202805
-0.253890
0.115806
-0.289149
0.062587
0.219218
0.344097
0.316071
0.171732
-0.436109
0.103120
0.347696
0.059553
0.219227
0.568415
-0.099470
-0.539986
-0.867078
0.614336
0.163046
-0.319485
0.009651
-0.967515
-0.334935
-0.648949
-0.013022
0.250910
-1.153040
-0.078894
0.044954
0.241299
1.017905
0.018522
-0.218912
-0.061949
0.124369
0.622179
0.124279
0.141411
-0.064958
-0.281358
-0.118567
0.015482
0.178890
0.884327
-0.094163
0.120042
-0.523332
0.019459
0.403001
0.449407
0.660992
0.963322
0.351054
0.079369
-1.077238
-0.512584
0.299004
0.005037
0.311453
0.246405
0.048493
-0.125779
-0.461271
-0.647231
-0.549652
-0.691307
0.199681
0.119686
1.362392
-0.301624
-0.329701
0.063228
-0.834914
-0.399087
-0.346694
0.681522
-0.414930
-0.286670
-0.422606
0.000717
-0.209657
-0.483209
-0.364065
-0.595145
0.206580
0.176903
-0.167932
-0.087959
-0.059255
0.118905
-0.319681
-0.335882
-0.558272
0.310623
0.420295
-0.020276
-0.281750
0.924528
-0.740719
0.452612
0.165130
0.271103
0.681074
0.380741
-0.530115
0.797549
0.485747
0.366543
0.495010
0.317609
0.782052
0.350979
0.265630
1.090401
-0.555186
-0.273403
-1.027833
0.055015
0.931258
0.208562
0.214410
0.574410
-0.761955
-1.139621
-0.748281
-0.175798
1.631962
0.007545
0.116575
0.564175
-0.533655
-0.876020
-0.576327
-0.540061
0.751543
-0.122014
-0.067161
0.014709
-0.590231
-0.910309
-0.382398
-0.165975
0.836705
-0.158311
-0.156089
0.047852
-0.373867
0.352965
0.819114
0.088025
0.786882
0.731102
0.182202
0.314249
-0.415316
0.285666
1.426517
-0.066000
-0.641270
0.415383
0.635357
0.028881
-0.513568
-0.345431
0.383186
-0.028175
0.221132
0.571000
0.975182
0.067174
-0.458305
-0.399314
0.635930
-0.076380
-0.030952
-0.156826
0.806934
-0.019218
-0.828258
0.117824
0.262812
-0.043879
-0.121609
-0.050079
0.103608
-0.814842
-1.106392
0.340589
-0.052803
0.212729
0.672726
0.902449
0.974475
0.923545
-0.326974
0.071020
0.345416
0.217088
0.536004
-0.270483
-0.139288
0.896305
-0.860960
-0.254392
-0.656646
-0.365920
-0.263912
0.091365
0.149509
-0.385783
-0.085362
-1.182924
0.181040
-0.657887
-0.250408
-0.090501
0.194756
0.045939
-0.282592
0.187930
0.336978
-0.915934
-0.551517
-0.102524
0.152150
-0.563655
-0.298834
0.054488
-0.083437
-0.634956
0.147833
-0.079911
0.799501
-0.037510
0.441265
0.594867
0.069043
-0.228445
0.169077
1.386099
0.026495
-0.098745
0.087527
0.583428
0.108899
-0.246338
-0.051847
0.111484
-0.032466
0.253111
-0.045393
-0.152927
-0.038007
0.235506
0.940246
0.871574
-0.350804
-0.184662
-0.101119
-0.030185
0.402039
-0.123739
-0.067731
-0.435480
-0.788927
0.039233
-1.039706
0.245820
-0.305120
-0.581131
0.686253
-0.072169
0.023820
-0.483429
-0.520499
0.323393
-0.027547
0.584949
-0.106464
0.109722
0.027308
-0.831814
-0.365341
1.455037
0.486788
-0.233798
-0.104223
0.315389
0.174905
-0.751298
-0.263151
0.662345
-0.336560
-0.256788
-0.008785
0.194522
0.077536
-0.863730
-0.077684
1.087924
0.244229
-0.355636
0.176782
0.174295
0.104690
-0.257401
0.131518
0.074487
-0.127083
-0.133111
0.393472
-0.563798
-0.392078
-0.208812
0.127410
0.008458
-0.179478
-0.217741
0.066311
0.143227
-0.084110
-0.041662
-0.617432
-0.079070
-0.511849
-0.347984
0.183117
0.095100
-0.025622
-0.129979
-0.352598
1.220922
0.929823
-0.031567
0.099927
-0.001597
-0.087892
-0.004531
-0.380069
1.264506
0.033529
-0.124301
-0.136317
0.000413
-0.332918
-0.082720
-0.161332
0.001510
0.001510
0.001510
0.001510
0.001510
0.001510
0.001510
0.001510
0.001510
0.001510
0.001510
0.001510
0.001510
0.001510
0.001510
0.001510
0.001510
0.001510
0.001510
0.001510
0.001510
0.001510
0.001510
0.001510
0.001510
0.001510
0.001510
0.001510
0.001510
0.001510
0.001510
0.001510
-0.026097
-0.078226
-0.006453
-0.086021
-0.063557
-0.056222
-0.024751
-0.031719
-0.089541
0.304142
0.117707
-0.149788
0.126674
-0.108707
-0.250402
0.542455
0.354223
0.366386
0.539530
0.198096
0.041973
-0.043081
0.553634
0.618745
0.422479
-0.154724
0.393972
0.286291
-0.109739
-0.409347
-0.531262
0.095884
-0.018922
-0.042401
0.286569
0.280928
-1.159842
-0.679510
-0.109204
0.169607
0.221899
-0.503082
0.149998
-0.194891
0.359062
0.117638
-0.151665
-0.006005
-0.025317
0.160294
0.664166
0.015389
0.072110
-0.104749
0.217822
-0.301011
0.168335
0.426655
0.550763
-0.116429
0.102874
0.120797
0.419580
0.603293
0.748041
0.313531
0.784205
0.281958
-0.219681
-0.304561
0.155936
0.151354
-0.110403
-0.512128
0.132423
0.151436
0.243056
-0.626134
-0.911559
-0.722902
-0.108961
-0.291713
-0.162621
-0.074045
0.033585
-0.504498
-0.486869
-0.188127
-0.251881
0.036276
-0.312422
0.596893
0.143952
-0.231630
-0.428752
-0.295114
-0.269140
0.479484
0.071992
0.342716
0.331739
0.456623
0.251015
-0.206606
-0.571147
-0.418421
0.326092
0.243782
0.250974
-0.154769
0.017170
0.001825
-0.494046
-0.572577
-0.141645
0.092541
0.143873
0.004686
-0.134396
1.131897
-0.755912
-0.662070
-0.397758
0.053464
0.142314
-0.219734
-0.150544
0.442667
-0.899297
0.091093
-0.208297
-0.275297
0.160374
-0.058289
0.638946
0.191733
-0.207777
-0.101638
-0.375454
-0.475122
0.076554
-0.043697
0.448060
0.038725
0.064883
-0.075129
-0.301617
-0.748421
-0.249156
-0.134144
0.329456
0.452604
0.752132
0.091614
-0.534601
0.004562
-0.195489
0.012454
0.120262
-0.679893
0.843044
-0.146476
-0.773893
0.123507
-0.132140
-0.227147
0.085855
-0.181285
-0.165764
-0.210876
-0.244026
0.379345
0.749770
0.103150
0.193106
-0.135123
0.210614
-0.152382
-0.606417
-0.066844
-0.002774
0.499002
-0.245548
-0.284495
-0.922919
0.033508
-0.471842
-0.040285
-0.387142
0.993909
-0.060666
0.025543
-0.218494
0.121671
0.111319
-0.218970
-0.114765
0.003747
-0.407988
0.121107
0.234110
0.149105
0.271596
-0.150247
-0.111915
0.709284
0.122288
-0.064539
0.205132
-0.051518
0.765769
-0.038132
1.252643
0.170004
0.113736
-0.118400
-0.246186
0.042626
0.643204
-0.156722
-0.027426
0.078488
1.015107
0.110416
-0.364945
-0.004794
0.203898
-0.003065
0.380130
0.502218
-0.286706
-0.001603
-0.772080
-0.036282
-0.133830
0.053325
-1.316246
-0.689535
0.037205
0.310788
-0.836622
0.027407
0.085181
-0.062126
-1.405905
-0.589136
0.181965
0.082923
-0.477311
0.009618
0.031618
-0.150864
0.062082
-0.119361
0.828473
0.538398
0.007861
-0.019417
-0.147635
-0.177779
-0.331189
0.243779
-0.120522
0.534961
0.664291
-0.065626
-0.057648
-0.451809
-1.176401
-0.275897
-0.172980
-0.042377
0.530300
0.212432
1.397631
-0.064449
-0.485400
-1.686834
-0.512571
-0.020213
0.264763
1.238984
0.614718
0.000671
0.488593
-0.476498
-1.401371
0.031653
0.154168
0.036790
-0.126508
-0.443517
-0.676569
0.506066
0.149781
-0.075247
-1.301449
-0.453905
-0.439639
0.081763
-0.493809
0.979419
0.384743
-0.536374
-1.077224
-0.447246
0.062508
0.525066
-0.592095
-0.106236
-0.462025
0.039395
-0.930431
0.423005
0.277931
-0.073028
-0.562833
-1.355400
-0.201774
0.138436
-0.187749
0.349314
0.173701
0.309490
-0.159935
-0.570893
-0.444293
0.177137
-0.004239
0.215065
0.129351
-0.324185
-0.023232
-0.434326
-0.625912
-0.493718
0.522503
0.352433
0.272948
-0.191731
-0.090482
-0.191506
-0.329387
0.109867
0.373409
0.440510
0.278010
-0.175592
-0.052593
-0.179210
-0.782367
-0.256481
0.185224
0.572791
0.154973
-0.573679
-0.096083
-0.056916
-0.073048
-0.035895
0.146600
0.621902
0.020363
-0.267474
0.001047
0.109485
0.365290
-0.085136
0.109554
-0.052298
-0.274904
-0.094191
0.620559
0.017483
-0.080648
0.204087
0.157572
0.175674
-0.513867
-0.221315
0.039121
-0.114414
0.293337
0.166789
0.312044
0.083312
0.003545
-0.350774
-0.176542
-0.048473
-0.152880
0.321421
0.116633
-0.877699
-0.095042
0.485716
0.127526
-0.156544
-0.164031
0.057138
-0.242256
0.536663
0.904118
0.771976
0.166789
0.135959
0.035341
0.085098
0.041179
-0.080406
-0.332057
-0.232280
-0.122105
-0.042230
0.302344
0.720103
-0.039210
-0.048383
0.097571
0.024318
-0.203419
0.036021
0.268032
0.966768
-0.076352
0.025216
0.077277
-0.000182
-0.015880
-0.087673
0.064259
0.649667
-0.170431
0.074998
0.069998
-0.225750
-0.495013
-0.449469
0.092783
0.458408
-0.224947
-0.134287
0.346736
-0.153191
-0.752143
-0.337568
-0.072241
-0.175302
-0.562623
-0.059165
1.014859
0.433860
-0.539332
-0.080500
0.220480
0.080904
-0.142376
0.654954
0.204560
-0.204093
-0.256526
0.118347
0.205269
-0.061768
-0.210881
-0.306257
-0.166736
-0.034598
-0.077925
-0.010233
0.069234
-0.100185
-0.432884
-0.016778
-0.489851
0.051805
-0.132550
-0.512097
-0.154147
0.218025
0.042909
0.229750
0.173172
-0.214218
-0.035823
-0.508154
-0.892943
-0.065462
0.479014
-0.235702
-0.204618
0.389268
0.420989
0.480418
0.804745
0.409026
-0.047051
-0.406218
0.797632
0.415516
0.469339
0.857604
1.178225
0.875376
-0.479683
-0.232828
0.542377
0.498757
0.423515
0.075556
-0.142447
-0.239659
-0.143248
-0.517289
-0.231608
0.576981
-0.244369
-0.064224
0.185819
-0.024801
0.485178
0.088752
0.008338
0.023226
0.129905
0.026091
0.327221
-0.114481
-0.234748
-0.332333
-0.477774
-0.175201
-0.860751
-0.242534
-0.305718
-0.288671
-0.102691
-0.359568
0.105669
0.038193
-1.039390
-0.182084
-0.253534
-0.212657
-0.032910
0.501178
0.772786
-0.016383
-0.770414
0.003320
-0.025285
-0.378727
0.037202
0.696928
0.488720
-0.101712
-0.324742
0.040029
-0.061256
-0.442250
0.065728
0.469687
0.387668
0.340849
-0.321180
0.176953
0.034753
-0.501672
0.100806
-0.231926
-0.313815
0.775012
0.320385
-0.371260
0.202395
0.025457
0.310063
0.157106
0.013857
0.905330
0.278659
-0.205920
-0.384774
0.113351
0.389051
0.693813
0.452118
0.883510
-0.232166
-1.177430
-0.742808
0.213076
0.947329
0.204812
0.162463
0.051712
-0.084419
-0.318008
-0.649990
0.122961
0.790304
-0.073658
-0.044420
-0.811172
-0.000924
0.164810
-0.341003
0.557824
0.874000
0.158545
-0.056814
-0.051262
-0.135757
0.562626
-0.075372
0.354794
-0.279557
-0.019755
-0.322139
-0.724188
-0.182984
0.951018
0.291329
0.033735
-0.656754
-0.682963
-0.252695
-0.528704
0.051690
0.238845
0.219280
0.520643
-0.040275
-0.364464
0.196046
-0.117988
0.005664
0.106914
0.604631
0.638773
0.371643
-0.087184
-0.097509
0.300531
0.019418
0.229808
0.352550
0.890999
0.424479
-0.029091
0.276916
0.473035
0.733485
0.012199
0.369838
-0.254845
0.228296
-1.725962
-0.508935
0.665951
-0.313308
-0.745349
0.010446
-0.095976
0.280465
-0.943180
-0.962473
-0.171285
-0.662898
-1.123813
0.101867
-0.512062
0.795670
-0.477719
-0.596457
-0.402296
-0.256835
-0.268454
0.262735
0.132800
0.463853
-0.336021
-0.840088
-0.376799
0.901281
0.861022
0.344321
-0.172053
-0.289829
-0.377439
0.322883
0.859773
0.088321
0.035043
-0.108919
-0.171582
0.439256
-0.372740
-0.465034
0.233670
-0.243813
-0.259386
-0.161124
0.295359
0.458057
-0.393890
-0.057062
0.858848
-0.205428
-0.343069
-0.205904
0.299383
0.495704
-0.655755
0.425615
0.303016
-0.091078
-0.181022
-0.123828
0.403468
0.441303
-0.854729
0.191445
0.493296
-0.004579
-0.022266
-0.005476
-0.350584
0.471868
-0.186618
0.129778
-0.054942
0.847480
0.046378
0.649541
0.102312
0.614771
-0.006510
-0.033379
0.044496
0.495872
0.574651
-0.027366
-0.362345
0.213476
-0.141564
0.292543
0.217822
-0.085796
-0.009726
-0.059030
-0.340320
0.059330
-0.619477
-0.046547
0.452260
0.099663
0.071096
0.035647
-0.010713
0.137349
-0.635446
0.241395
-0.071890
0.064544
0.143737
0.174493
0.200352
0.166211
-0.000552
-0.000552
-0.000552
-0.000552
-0.000552
-0.000552
-0.000552
-0.000552
-0.000552
-0.000552
-0.000552
-0.000552
-0.000552
-0.000552
-0.000552
-0.000552
-0.000552
-0.000552
-0.000552
-0.000552
-0.000552
-0.000552
-0.000552
-0.000552
-0.000552
-0.000552
-0.000552
-0.000552
-0.000552
-0.000552
-0.000552
-0.000552
-0.401863
0.474980
0.102723
0.501748
0.454446
0.562368
0.117964
0.497230
-0.177094
-0.158813
-0.070518
-0.000688
-0.062362
-0.552905
0.208612
0.036081
-0.480225
0.437814
0.111016
0.094879
-0.589815
-0.702465
-1.105790
-0.216992
0.590427
-0.111364
0.502376
-0.312714
-0.708942
-0.933146
-0.541439
-0.491008
-0.640561
-0.229785
-0.668865
-0.665534
0.059013
0.039806
0.112876
-0.174498
0.567526
-0.482365
-0.096138
-0.127252
0.507085
0.254491
-0.167378
-0.125805
-0.042695
0.179634
-0.487471
0.240776
0.452454
-0.203703
-0.426432
0.242191
0.581864
0.705297
-0.004154
0.033684
-0.321085
-0.247139
-0.155171
-0.195739
0.845998
0.929926
-1.088188
0.103084
-0.097204
-1.064463
-0.696795
-0.540980
-0.430589
0.411364
0.037167
-0.011668
0.767956
0.245716
0.044443
0.030581
-0.985659
0.612194
0.501729
0.141578
0.508795
-0.275646
-0.011955
-0.011758
-0.631369
0.091037
-0.087875
0.002684
0.114261
0.057897
0.245982
-0.093016
-0.285941
0.708167
-0.352399
-0.016206
0.179723
0.656359
0.064174
0.030921
0.126567
-1.576517
-0.521507
0.098984
0.144352
-0.199792
0.165381
0.133509
-0.341722
0.559571
-0.460598
0.089536
0.323208
0.079287
0.206726
0.610169
-0.322510
0.991168
0.360740
-0.012808
0.315480
-0.062765
0.343646
1.100340
-0.276968
-0.102895
0.000296
0.016556
-0.242250
-0.306378
0.057893
-0.311377
0.403407
-0.220470
-0.067386
0.068179
-0.126683
-0.146252
0.205287
-0.823969
-0.316400
-0.364863
-0.038283
-0.067966
-0.165489
-0.230981
0.164150
-0.588687
-0.680521
-0.163713
0.679378
0.592484
-0.149563
0.004172
0.352457
0.524220
-0.762597
0.023258
0.794975
-0.061342
0.039510
-0.042464
0.391274
0.759615
1.709695
0.618635
-0.101829
-0.035125
0.060182
0.973764
0.039705
-0.222793
0.982665
-0.154378
-0.276256
-0.184320
0.445842
0.520995
0.886550
-0.025888
0.857466
0.141125
-0.075236
0.200933
-0.091797
0.301440
0.330340
0.157841
-0.726473
0.136450
0.293446
0.245967
-0.055787
0.785890
1.178102
0.775674
0.033074
0.122051
0.250715
0.254212
0.142919
-0.561961
-0.193504
0.862832
0.072404
0.084918
0.525970
0.044283
-0.734355
-0.872060
-0.475658
-0.276544
-0.208791
0.173832
0.216958
0.107185
-0.135422
-0.718996
0.069295
-0.819768
0.178029
0.055115
-0.511999
-0.080214
-0.704976
-1.199787
0.304977
-0.267896
1.430083
0.062577
-0.583687
-0.235850
0.943612
0.658588
-0.123885
-0.821505
0.806772
0.039052
-0.317942
-0.153699
0.906723
-0.081827
-0.218368
-0.560288
0.638109
0.054840
0.036635
-0.292451
-0.063709
-0.021221
0.392629
-0.097344
-0.354170
-0.779329
-0.021145
-0.558559
-0.072943
-0.028003
-0.125569
-0.214859
0.521729
0.020908
-0.058619
-0.444776
-0.427975
0.620948
-0.276329
-0.014262
-0.352335
-0.031816
-0.351119
-0.346069
-0.034587
-0.553547
0.204186
-0.146826
-0.089001
0.314970
0.421342
-0.295683
-0.313071
0.010627
0.687103
-0.210844
0.012935
-0.260698
0.307717
-0.185345
1.054457
0.434997
-0.107507
0.175246
0.447394
0.280545
0.733120
0.631870
-0.056043
-1.183173
-0.754092
0.824640
-0.016730
0.819576
-0.143376
0.988197
0.134562
0.199674
0.255467
0.441485
-0.303289
-1.539529
0.101363
0.814574
-0.992342
-0.268009
0.301230
0.519417
-0.094591
0.190779
0.129834
0.650339
-0.120721
-1.379053
0.282629
0.297330
-0.085775
0.178666
0.189747
0.542271
0.162486
0.290461
-0.041194
-0.133264
0.257958
-0.132429
-0.123335
0.402930
0.199821
0.333254
0.235406
0.192927
-0.537455
-0.216921
-0.293311
0.546078
0.123926
0.272735
0.902011
0.360080
-0.011802
-0.478459
-0.372111
0.313156
0.131763
0.373432
0.693708
-0.223162
-0.569071
-0.673940
-0.626124
0.367555
0.238546
0.046016
0.212616
-0.046128
-0.306298
-0.400112
0.250135
0.348753
0.201003
-0.174478
-0.121474
0.114971
-0.196470
-0.990871
0.295901
0.086937
0.139020
0.114653
-0.085027
-0.048285
-0.506116
-0.807761
-0.488035
-0.109125
0.566481
-0.162181
-0.208382
0.059609
-0.692018
-0.613606
-1.159402
0.292519
0.502559
0.001868
-0.364406
-0.064828
-0.315125
-0.010229
0.408924
0.141565
-0.105120
0.231053
0.073569
-0.340657
-0.098982
0.047212
-0.442415
-0.132715
0.131660
-0.004531
0.706817
0.061534
-0.028716
0.335302
0.086434
0.068156
0.039275
0.100302
0.358217
-0.272101
0.046574
-0.057896
-0.098410
-0.032681
-0.249644
0.047690
0.345040
-0.380782
0.368192
-0.500954
-0.222759
-0.142975
-0.641761
0.013185
0.122468
-0.626697
1.110684
0.467386
0.142473
1.328899
0.905774
-0.038689
-0.448047
0.055777
0.636480
-0.339471
0.003528
-0.257355
0.071437
-0.113500
-0.302629
0.071972
-0.181781
-1.265620
-0.157661
0.310603
0.183952
0.033896
-0.279629
0.220563
-0.057774
-0.771137
0.262105
-0.145617
0.254937
-0.156419
-0.314501
0.174830
-0.102252
-1.281026
-0.069664
-0.487854
0.079832
-0.097114
-0.034310
0.155213
0.170974
-0.440997
-1.274414
-0.134803
-0.263115
0.297355
1.206090
1.599346
-0.103198
-0.090105
-0.537877
0.523299
0.602653
0.343975
0.546565
-1.102559
-0.588519
0.014179
0.629220
0.547054
0.642017
0.392418
-1.055464
-0.250150
-0.068195
0.167899
0.326475
0.195624
0.227512
-0.250313
0.169984
0.570909
-0.626879
-0.030133
0.143038
0.125309
-0.459271
-0.303117
0.864750
-0.098088
0.310113
0.259642
-0.098115
-0.461607
-0.551344
-0.493709
-0.021736
-0.650642
-0.100725
0.478739
0.440459
-0.124121
0.370492
0.194708
0.198720
-0.302812
0.364318
0.996127
1.273179
0.246626
0.461292
0.398972
0.186367
-0.073273
0.544920
0.169923
-0.559375
0.866643
-0.258732
-0.004782
-0.028883
0.316523
0.188645
-0.334383
-0.298493
0.563755
0.197195
-0.046551
0.078114
0.193400
0.072495
-0.196526
-0.149496
-0.071965
0.201003
-0.069283
0.121367
0.220940
-0.162072
-0.088761
-0.709719
-0.168552
-0.669099
-0.341968
-0.205519
0.191771
0.434706
-0.321965
-0.263404
0.391178
0.182861
-0.261412
-0.309453
0.088791
-0.430138
-0.501619
-0.154088
0.267904
-0.183699
0.154720
0.149981
0.169335
-1.100078
-0.362501
-0.190181
1.434778
0.161629
0.488830
0.377259
1.183985
0.297642
-0.181815
-0.053654
0.653864
0.030912
-0.221524
0.206703
1.066987
0.424086
-0.012167
-0.148531
0.164927
-0.214612
-0.093664
-0.535836
0.012565
-0.000337
-0.885786
-0.256842
0.837003
-0.051109
-1.210161
-0.394039
0.008931
0.535605
1.364436
0.080958
-0.521513
-0.020620
-0.557939
-0.121911
-0.351250
-0.571716
0.216980
-0.169954
-0.284930
-0.071923
-0.013207
-0.832954
0.126634
-0.345733
-0.033058
-0.094518
0.282759
0.139642
-0.106985
-0.548180
0.398236
0.355261
-0.041882
0.026234
0.306847
0.162498
-0.054311
0.114657
0.001466
-0.249540
-0.500723
0.480570
-0.429588
0.064623
1.002276
0.348699
0.054378
0.266368
-0.735982
0.446869
-0.225752
0.050973
0.267161
-0.202253
-0.109352
0.250545
-0.633261
-0.200141
0.015875
0.195206
-1.257132
0.025422
-0.532624
-0.491587
-0.143140
0.367203
0.204320
-0.538912
-0.349205
0.110755
-0.226859
-0.474452
-1.030677
0.777535
0.094664
-0.050506
-0.048684
-0.006359
0.192979
0.149089
-0.480012
0.563053
0.620664
-0.012738
-0.061335
0.030921
0.137236
-0.001129
-0.720250
0.552605
0.838640
0.094190
-0.059050
0.016485
1.512512
0.582953
0.578772
1.466462
0.779225
-0.197709
-0.142787
0.053059
0.781464
1.269334
0.624880
1.149923
0.751905
-0.255588
-0.244251
-0.171153
0.451656
0.742925
-0.532556
-0.027555
0.104063
-0.456621
0.560950
-0.062441
0.122673
-0.477260
-0.418591
0.214904
0.182480
-0.611475
-0.768553
0.107260
0.339109
-1.043085
-0.843074
1.073116
0.303712
-0.085252
0.270171
0.187979
0.812096
-0.090007
-1.240165
0.725250
0.317884
-0.112970
0.022376
0.054683
0.664606
-0.069945
-1.184039
0.035014
0.852985
0.063609
0.038116
0.293793
0.518141
-0.630699
-0.001091
-0.001091
-0.001091
-0.001091
-0.001091
-0.001091
-0.001091
-0.001091
-0.001091
-0.001091
-0.001091
-0.001091
-0.001091
-0.001091
-0.001091
-0.001091
-0.001091
-0.001091
-0.001091
-0.001091
-0.001091
-0.001091
-0.001091
-0.001091
-0.001091
-0.001091
-0.001091
-0.001091
-0.001091
-0.001091
-0.001091
-0.001091
0.483730
-0.075375
-0.099568
-0.097062
-0.143571
-0.206377
-0.056811
-0.165714
-0.061157
0.587770
0.200523
0.169798
-0.107234
0.137167
0.295852
0.382787
0.175739
0.351420
0.005480
0.062722
0.122385
0.256775
-0.231150
-0.110789
0.832283
-0.329330
-0.258922
0.148275
0.301904
0.099645
0.339386
0.165556
-0.092458
-0.920347
0.253134
0.159778
0.222360
0.011477
0.166977
0.218830
0.062604
0.370332
-0.056389
-0.320873
-0.316216
-0.307577
0.290746
-0.224035
0.127002
0.115208
-0.484871
0.121211
-0.152676
-0.066050
-0.025652
0.315011
0.209550
-0.198738
-0.179533
0.060973
0.401143
-0.171293
-0.276847
-0.287081
-0.570036
-0.113097
0.215905
0.213261
0.280660
0.149650
-0.093769
-0.004109
0.057357
-0.128028
-0.035440
0.108942
-0.193626
-0.066855
0.300571
0.184140
0.086531
0.230189
0.115982
0.020263
0.177686
0.483357
-0.152849
-0.657432
-0.272313
-0.008794
-0.255699
-0.027042
-0.320876
-0.242938
-0.164854
-0.363036
0.293402
-0.798171
-0.446627
-0.009920
0.028555
-0.384702
0.038128
-0.588177
-0.339113
0.671625
-0.581991
-0.011299
-0.027878
0.142540
-0.052725
-0.365033
0.006161
0.159429
0.002967
0.056688
0.074001
0.170617
-0.109540
-0.371754
-0.054540
-0.361473
-0.200823
-0.137907
0.346280
0.213411
-0.270597
-0.549427
-0.089549
0.205707
0.167801
-0.152131
0.366681
0.328999
-0.338434
-0.416288
-0.144082
0.048676
0.325055
-0.290862
0.256793
0.240187
0.133856
-0.029827
-0.467277
0.177384
0.256386
-0.043540
0.278094
0.277574
0.200259
0.062786
-0.133995
-0.023550
-0.585483
-0.412773
0.224565
0.281459
0.308600
0.298848
-0.192052
0.091711
-0.671931
-0.043456
0.076904
0.225994
0.485490
0.063825
-0.047946
0.200738
0.670687
0.032627
0.256380
-0.092693
0.287555
-0.154318
-0.232302
0.719975
0.218722
0.624909
0.021902
-0.784950
-0.663513
-0.158002
0.324387
0.075461
0.164080
0.480285
0.076213
-0.501327
-0.613736
-0.103725
-0.006885
0.024949
-0.005564
0.213999
0.129563
0.234654
-0.293141
-0.218262
-0.190785
-0.002619
-0.180310
0.154152
0.158044
-0.539551
0.015647
-0.098927
-0.157873
-0.133047
0.198418
-0.399376
-0.003365
0.543863
0.268087
-0.393016
-0.783035
-0.085702
-0.780127
-0.198257
0.457915
0.452700
0.455852
-0.074226
-0.182455
-0.012794
0.505625
-0.039110
-0.358559
0.830297
0.816332
0.798401
-0.493071
0.107211
0.835561
-0.222908
0.206397
0.046471
-0.018008
0.512005
-0.010493
0.024420
0.100274
-0.489199
-0.070243
0.694223
0.007164
0.468111
-0.238220
-0.116741
0.018775
-0.193322
0.071034
0.043182
-0.564326
-0.312684
0.508498
0.591188
-0.013835
0.145331
0.714807
-0.322483
0.029756
-0.727499
-0.051595
0.016609
-0.038369
0.449913
1.182731
0.119332
-0.434982
-0.341976
-0.222906
-0.273046
0.031497
0.342841
0.288411
0.807251
-0.142909
-0.331097
-0.619821
-1.257825
0.703197
0.142630
-0.191106
0.414225
-0.211373
-0.326227
-0.556732
-0.026235
-0.350379
0.169871
-0.019370
-0.369354
-0.114698
-0.219690
-0.488007
0.139620
-0.754589
-0.167613
0.514983
0.503768
0.260570
0.150130
-0.222798
-0.313244
-0.745007
-0.356913
0.582769
1.082309
0.047277
0.360586
0.007659
-0.164708
-0.632308
-0.238146
0.878238
0.356383
0.016137
0.337355
-0.100167
-0.785985
-0.049657
0.153020
-0.425835
0.412377
0.227911
0.336972
-0.141587
0.167543
0.163469
-0.239772
-0.139843
-0.065443
-0.364185
-0.262118
0.244410
0.204549
0.214441
-0.193634
-0.097458
-0.197043
-0.081944
-0.288576
0.174138
0.178129
-0.189430
-0.409905
-0.020486
-0.190707
-0.553393
-0.094508
-0.145771
0.337600
0.311314
-0.190070
0.051567
-0.277566
-0.534147
0.162395
0.398425
0.410453
0.615864
0.001253
0.064641
-0.062603
-0.802797
0.129376
0.209549
0.438497
0.289758
0.420729
0.104258
0.516995
-0.161957
0.173059
-0.024756
0.717628
0.493324
0.039301
0.155883
-0.454886
-0.466088
-0.183146
-0.018486
0.326903
0.317328
0.183681
-0.494860
-0.069081
-0.322641
0.324636
0.233219
0.323014
-0.064859
-0.284718
-0.312349
-0.038623
-0.230807
0.312776
0.414403
-0.544636
-1.059983
-0.403966
0.329387
-0.352388
-0.336608
-0.354765
-0.223999
-0.317351
0.138885
-0.047167
-0.045904
0.337201
-0.194897
-0.514867
-0.080643
-0.144536
-0.288300
-0.502872
-0.240942
0.293718
0.111769
-0.661114
-0.092939
-0.061236
-0.185034
-0.396231
-0.090067
0.131368
0.130459
-0.472628
-0.294207
0.217650
-0.111571
-0.295243
0.450304
0.471584
0.439411
-0.446762
-0.748456
-0.236223
-0.067301
0.173851
-0.518898
0.398056
0.592007
-0.154270
0.233983
0.413763
-0.597613
-0.295815
0.183932
-0.114954
0.221600
-0.354340
-0.059374
-0.069855
-0.041042
0.028688
0.263366
0.224956
0.323902
-0.286001
-0.156750
0.541216
0.349046
0.282824
0.135267
0.249749
0.115097
0.018737
-0.183887
0.099725
0.571252
0.525695
0.757655
0.771734
0.469493
0.450865
0.145072
0.277152
0.924581
0.404147
0.769446
0.680977
-0.232875
-0.263925
-0.276731
0.194080
-0.086350
-0.231954
-0.082545
-0.139081
-0.320052
0.687596
0.479576
0.699031
0.069520
-0.215738
-0.060940
-0.266602
-0.027677
0.215986
0.636889
0.124089
-0.441004
-0.279929
-0.096360
0.041985
0.046882
0.286402
0.630660
-0.040632
0.198509
-0.153298
-0.244993
-0.045585
-0.461326
-0.443686
-0.647652
-0.314775
-0.133607
0.020984
-0.135916
0.192384
0.364276
0.233274
-0.386365
-0.111591
-0.037437
-0.602497
-0.544217
-0.145935
-0.020077
-0.455691
0.237801
0.039918
-0.142622
-0.168768
-0.533200
-0.301610
0.005301
-0.225258
0.231843
0.312836
0.072689
0.294517
-0.254069
-0.055627
-0.010387
-0.221482
0.127127
0.112810
0.089718
0.294788
-0.393838
0.015960
0.014827
-0.156710
0.229574
0.163702
0.020802
0.025047
-0.377877
0.012293
0.055659
-0.255232
0.053380
-0.086017
-0.220171
-0.924326
-0.621656
-0.486840
-0.005594
-0.503429
-0.257072
0.060330
-0.802402
-1.254415
-0.245618
-0.254031
-0.440688
-0.204528
0.365542
-0.550432
-0.672966
-1.230839
-0.021764
-0.437610
-0.548092
-0.397789
0.023793
-0.508349
-0.238587
-0.905536
0.088637
0.304208
-0.175409
-0.772156
-0.788675
0.143394
-0.085024
-0.562471
0.243184
0.160228
0.313316
-0.347357
-0.433743
-0.225304
0.168423
0.161297
-0.320631
-0.349838
0.124003
-0.152317
0.665725
-0.256656
-0.265877
0.060590
-0.363546
-0.102182
-0.008663
-0.990339
-0.103127
-0.223936
0.364754
0.662619
0.130457
0.112839
-0.171617
-0.569415
-0.030364
0.789879
-0.002837
0.528520
0.133298
0.038528
-0.072860
-0.334948
0.410659
0.083698
-0.015353
0.374892
0.310177
-0.093948
-0.099434
-0.441580
-0.602657
-0.006683
-0.088251
-0.306866
-0.807908
0.079072
-0.967021
-0.098628
-0.195278
0.840755
-0.223025
-0.013854
0.590549
-0.580433
-0.221081
-0.202620
-0.728994
-0.067286
0.431792
0.295879
0.634282
0.646248
0.204593
-0.597375
-1.312078
-0.027632
0.498352
-0.238878
-0.622442
0.453834
0.165236
0.502758
-0.013711
0.028009
0.138140
-0.592715
-0.292093
-0.222587
0.316470
0.481609
0.385990
0.528403
-0.393793
-0.306974
-0.382044
0.062068
-0.131265
0.390141
0.435554
0.346123
0.158959
-0.860516
-0.011391
-0.143899
-0.097881
0.825500
0.430396
-0.276922
-0.103473
-1.040416
-0.017520
-0.255120
-0.120736
-0.350411
-0.118749
-0.517736
-0.776137
-0.177300
0.100695
-0.026252
-0.021415
0.294098
-0.693577
0.033200
-0.224408
-0.226021
-0.000517
0.021238
0.050693
-0.454322
-0.680735
0.225892
-0.107731
0.064839
-0.037551
-0.255823
-0.078492
-0.021876
0.224390
0.291523
-0.110763
-0.115956
-0.282299
-0.034776
0.167332
0.275761
1.082970
0.826620
-0.291844
-0.258413
0.016678
-0.084024
0.121312
-0.194953
0.272071
-0.198708
-0.637993
-0.447112
0.030614
-0.040016
0.061309
-0.327386
0.106709
-0.305085
-0.135792
-0.413597
0.000014
-0.071342
-0.098066
-0.526749
0.510429
-0.000377
-0.000377
-0.000377
-0.000377
-0.000377
-0.000377
-0.000377
-0.000377
-0.000377
-0.000377
-0.000377
-0.000377
-0.000377
-0.000377
-0.000377
-0.000377
-0.000377
-0.000377
-0.000377
-0.000377
-0.000377
-0.000377
-0.000377
-0.000377
-0.000377
-0.000377
-0.000377
-0.000377
-0.000377
-0.000377
-0.000377
-0.000377
0.135282
-0.228740
-0.018799
-0.218639
-0.196404
-0.280106
-0.014502
-0.299928
-0.713412
-2.462156
0.663018
-1.007212
-4.649303
-1.540937
13.998222
4.103203
-6.031305
-3.286826
-4.183225
-2.763222
9.861955
2.394321
-3.947437
-4.660607
-2.289430
-8.989495
7.064510
3.209827
-1.645228
-4.552619
-1.215334
-6.068344
6.628528
3.977752
-2.196132
-1.239053
-0.913595
-12.075979
6.831981
1.974631
-3.675928
-0.457363
0.748196
-10.371339
5.759927
1.263770
-1.498791
-3.752262
-1.420023
-8.064010
8.069000
2.133659
-0.778381
-4.282594
-2.042554
-7.885645
7.213495
3.439259
-2.507240
-0.448648
1.162766
-8.438252
7.201548
